SVM-light Version V6.02
0 # kernel type
3 # kernel parameter -d 
1 # kernel parameter -g 
1 # kernel parameter -s 
1 # kernel parameter -r 
empty# kernel parameter -u 
101623 # highest feature index 
18457 # number of training documents 
5504 # number of support vectors plus 1 
-0.46348316 # threshold b, each following line is a SV (starting with alpha*y)
-0.00042345395701219606552842544822113 1:1 13:1 19:4 57:1 61:1 63:1 75:3 110:2 112:2 132:2 158:1 240:2 272:2 281:1 282:1 295:1 335:1 450:3 525:2 558:1 584:1 659:1 665:1 898:1 1513:1 1612:1 2618:1 2751:1 3192:1 3639:1 3671:1 4448:1 7098:1 8055:1 19364:1 22105:1 44538:2 46734:1 54615:1 54616:2 54617:1 #
-0.00042345395701219606552842544822113 1:1 19:3 20:6 93:3 110:5 126:1 152:1 154:1 290:1 654:4 961:1 1751:1 1785:1 2075:1 2095:1 3373:1 4510:1 20396:1 55030:1 55477:1 55736:1 59908:1 60021:1 60023:1 61833:1 69291:1 69810:1 #
-0.00042345395701219606552842544822113 1:1 3:51 19:19 20:7 25:7 43:4 50:6 51:18 52:1 61:1 81:2 83:4 92:2 94:10 96:10 111:4 162:6 164:1 210:2 216:1 234:1 240:11 276:2 310:2 323:2 380:2 450:8 472:2 536:4 540:1 542:2 612:1 613:2 614:4 615:2 627:2 652:1 659:2 680:6 796:2 818:1 911:2 923:4 949:1 1028:1 1081:2 1087:2 1173:1 1276:3 1307:2 1314:1 1367:2 1391:1 1425:1 1489:4 1513:1 1550:5 1615:2 1646:6 1688:2 1744:2 1778:4 1860:1 1882:1 1883:1 2119:2 2176:2 2182:1 2258:3 2510:2 2606:2 2638:2 2669:2 2694:1 3259:2 3268:4 3406:1 3490:4 3499:1 3530:2 3531:4 3646:2 3685:1 3953:2 4003:2 4624:4 4735:3 5258:2 5737:2 5790:1 5802:2 5976:2 6067:2 6504:2 6995:2 7134:1 7207:1 7530:2 7639:2 8215:1 8514:2 10154:2 10615:2 10842:2 11191:1 11218:1 11350:2 12317:2 13570:2 13888:2 14600:2 14922:1 16882:2 17946:6 18853:4 20919:2 24357:1 25345:2 26986:2 32914:2 33277:1 35809:2 40661:2 56506:2 59453:1 59458:2 59460:1 59781:1 64300:1 64301:2 64302:2 64303:2 64304:2 64305:2 64306:2 64307:2 64308:1 64309:2 64310:1 64311:1 64312:1 64313:3 #
0.00042345395701219606552842544822113 1:1 1386:1 #
-0.00042345395701219606552842544822113 1:1 13:1 15:1 16:2 17:1 19:15 20:1 25:1 33:1 35:1 45:1 47:1 56:1 63:1 77:1 81:3 103:1 178:1 207:1 208:1 236:1 247:1 486:1 654:5 760:4 804:1 1103:1 1178:1 1250:1 1275:1 1364:1 1513:1 1662:1 1715:1 1785:1 1795:1 1882:1 1992:1 2737:1 2866:1 2926:1 3020:1 3360:1 3653:1 3768:1 3789:1 3875:1 4272:1 4638:2 4692:1 5064:1 5230:1 5569:2 5965:1 5976:3 6301:1 6382:1 6660:1 6696:1 7273:1 7312:1 7479:1 7662:1 8359:1 8380:1 8513:1 8743:1 8758:1 8767:1 9034:1 9205:1 9574:1 9718:1 9984:1 10796:1 10902:1 11254:1 11545:1 11698:1 12140:1 12275:1 12276:1 12784:1 13206:1 13420:1 13563:1 13609:1 13625:1 13961:1 13964:1 14608:1 14847:1 15213:1 15321:1 15515:1 15804:1 16073:1 16163:1 16262:1 16293:1 16303:1 16832:1 17504:1 17574:1 17661:1 17687:1 17881:1 18060:1 18155:1 18182:1 18282:1 18852:1 18967:1 18999:1 19315:1 19386:1 19481:1 19608:1 19681:1 20077:1 20145:1 20391:1 20570:1 20957:1 21013:1 21452:1 21702:1 21940:1 22336:1 22863:1 23091:1 23095:1 23906:1 24319:1 24415:1 24602:1 24838:1 25412:1 25701:1 26951:1 27018:1 27496:1 28065:1 28142:1 28158:1 28471:1 28824:1 29157:1 29561:1 30051:1 30355:1 30690:1 30854:1 32198:1 32680:1 35032:1 35048:1 35981:1 36778:1 37384:1 37899:1 37923:1 38272:1 38305:1 38987:1 39320:1 39485:1 39515:1 39708:1 39811:1 40812:1 41049:1 41135:1 41685:1 42030:1 42973:1 43042:1 43050:1 43266:1 43327:1 43601:1 43613:1 43627:1 44280:1 45122:1 45147:1 45699:1 46635:1 46719:1 47052:1 47459:1 48080:1 48379:1 48380:1 50282:1 51160:1 51351:1 51416:1 52018:1 52233:1 52426:1 53218:1 53672:1 54545:1 54620:1 54780:1 54794:1 54803:1 54838:1 54925:1 55032:1 55132:1 55133:1 55134:1 55135:1 55136:1 55137:1 55138:1 55139:1 55140:1 55141:1 55142:1 55143:1 55144:1 55145:1 55146:1 55147:1 55148:1 55149:1 55150:1 55151:1 55152:1 55153:1 55154:1 55155:1 55156:1 55157:1 55158:1 55159:1 55160:1 55161:1 55162:1 55163:1 55164:1 55165:1 55166:1 55167:1 55168:1 55169:1 55170:1 55171:1 55172:1 55173:1 55174:1 55175:1 55176:1 55177:1 55178:1 55179:1 55180:1 55181:1 55182:1 55183:1 55184:1 55185:1 55186:1 55187:1 55188:1 55189:1 55190:1 55191:1 55192:1 55193:1 55194:1 55195:1 55196:1 55197:1 55198:1 55199:1 55200:1 55201:1 55202:1 55203:1 55204:1 55205:1 55206:1 55207:1 55208:1 55209:1 55210:1 55211:1 55212:1 55213:1 55214:1 55215:1 55216:1 55217:1 55218:1 55219:1 55220:1 55221:1 55222:1 55223:1 55224:1 55225:1 55226:1 55227:1 55228:1 55229:1 55230:1 55231:1 55232:1 55233:1 55234:1 55235:1 55236:1 55237:1 55238:1 55239:1 55240:1 55241:1 55242:1 55243:1 55244:1 55245:1 55246:1 55247:1 55248:1 55249:1 55250:1 55251:1 55252:1 55253:1 55254:1 55255:1 55256:1 55257:1 55258:1 55259:1 55260:1 55261:1 55262:1 55263:1 55264:1 55265:1 55266:1 55267:1 55268:1 55269:1 55270:1 55271:1 55272:1 55273:1 55274:1 55275:1 55276:1 55277:1 55278:1 55279:1 55280:1 55281:1 55282:1 55283:1 55284:1 55285:1 55286:1 55287:1 55288:1 55289:1 55290:1 55291:1 55292:1 55293:1 55294:1 55295:1 55296:1 55297:1 55298:1 55299:1 55300:1 55301:1 55302:1 55303:1 55304:1 55305:1 55306:1 55307:1 55308:1 55309:1 55310:1 55311:1 55312:1 55313:1 55314:1 55315:1 55316:1 55317:1 55318:1 55319:1 55320:1 55321:1 55322:1 55323:1 55324:1 55325:1 55326:1 55327:1 55328:1 55329:1 55330:1 55331:1 55332:1 55333:1 55334:1 55335:1 55336:1 55337:1 55338:1 55339:1 55340:1 55341:1 55342:1 55343:1 55344:1 55345:1 55346:1 55347:1 55348:1 55349:1 55350:1 55351:1 55352:1 55353:1 55354:1 55355:1 55356:1 55357:1 55358:1 55359:1 55360:1 55361:1 55362:1 55363:1 55364:1 55365:1 55366:1 55367:1 55368:1 55369:1 55370:1 55371:1 #
-0.00042345395701219606552842544822113 1:1 3:4 12:1 16:14 19:13 20:5 25:12 51:18 92:2 94:7 96:7 156:4 196:1 240:8 316:5 612:1 613:3 760:11 1307:2 1391:3 1423:1 1646:1 1739:1 1790:2 1993:1 2207:3 2258:2 2648:25 2739:1 2800:1 3281:1 3522:1 3571:2 3934:2 4092:2 5652:4 5686:2 5843:1 7001:1 8410:1 8412:1 8698:1 10578:2 10696:1 11380:1 11425:1 11663:2 19532:1 55815:2 55816:2 55817:2 55818:4 55819:2 55820:1 55821:1 55822:1 55823:1 55824:1 55825:1 55826:1 55827:1 55828:1 55829:1 55830:1 55831:1 55832:2 55833:1 55834:1 55835:1 55836:1 #
0.00042345395701219606552842544822113 1:1 3:1 19:2 20:1 25:1 40:1 42:1 65:1 154:1 162:2 218:1 257:2 314:1 486:2 1423:1 1424:2 1875:1 8402:1 24473:1 39650:1 39651:1 39652:1 39653:1 #
-0.00042345395701219606552842544822113 1:1 3:5 8:2 13:1 16:2 19:13 20:4 22:1 23:2 25:2 28:1 34:1 61:1 63:1 72:1 75:3 81:2 82:1 111:1 120:1 140:1 154:1 156:2 276:1 277:1 282:1 290:1 314:1 547:1 558:1 613:3 760:2 818:1 852:1 961:1 1041:1 1276:1 1307:1 1513:1 1514:1 1543:1 1646:1 1881:1 1992:1 2040:1 2109:1 2196:1 2332:1 2434:1 2669:1 2775:1 3014:1 3141:1 3306:1 3370:1 3426:1 3485:1 3577:1 3709:1 5818:1 5863:1 9324:1 9476:1 10995:1 11093:1 11367:1 13200:1 13793:1 14751:1 17975:1 19228:1 19753:1 20735:1 24602:1 30029:1 32533:1 32728:1 34957:1 38359:1 55006:1 55007:1 55043:1 71139:1 71141:1 71142:1 71143:1 71144:1 82380:1 93412:1 93413:1 #
0.00042345395701219606552842544822113 1:1 3:7 19:3 20:6 23:1 25:2 40:1 42:3 51:1 61:2 72:1 82:2 87:1 109:1 154:3 156:1 207:3 218:1 226:1 257:1 258:1 283:2 310:3 314:1 645:3 670:1 677:3 682:1 716:1 988:1 1099:1 1231:3 1480:1 1550:2 1643:1 2029:1 2043:1 2544:1 2841:2 3190:1 3826:1 4731:1 4877:3 5171:1 5546:1 5652:1 6102:3 6477:1 6518:1 7224:1 7661:1 7761:1 11152:1 12541:3 13885:6 19070:3 19957:3 19958:3 20356:1 22888:1 23743:1 25616:4 #
0.00010259835176968327009449505338168 1:1 3:18 8:6 13:1 16:2 19:1247 20:643 23:3 25:19 27:2 31:19 34:8 36:2 40:7 42:15 48:12 50:24 51:14 52:11 53:20 58:3 59:2 61:5 66:1 72:5 75:5 81:4 83:16 85:3 87:1 92:1 94:2 96:1 103:2 107:2 111:67 118:2 120:3 121:1 126:1 131:1 132:3 142:1 151:5 154:4 156:4 158:1 162:3 175:1 178:17 218:4 239:15 240:332 257:4 258:1 276:2 282:1 305:19 318:21 330:1 333:1 352:1 357:1 416:1 428:1 451:6 489:2 494:3 513:1 525:11 536:13 550:1 563:1 592:13 598:10 600:1 610:2 614:11 622:1 625:8 652:13 686:1 703:1 708:1 719:1 722:9 728:3 734:7 760:2 771:1 797:1 860:1 955:1 962:21 968:8 972:19 976:22 996:18 1005:17 1014:16 1018:16 1021:16 1022:13 1028:14 1031:4 1033:9 1037:12 1041:20 1047:14 1053:17 1057:9 1060:14 1066:14 1076:11 1078:17 1080:12 1081:9 1086:12 1087:8 1091:17 1100:9 1269:1 1275:2 1276:1 1295:1 1307:1 1322:1 1365:10 1389:2 1395:2 1411:2 1433:2 1434:12 1437:2 1438:1 1454:25 1458:21 1462:19 1466:16 1494:1 1495:2 1517:3 1530:7 1536:1 1553:2 1563:1 1580:10 1592:8 1594:1 1598:7 1604:16 1617:1 1634:1 1635:8 1645:10 1646:810 1683:1 1731:1 1749:1 1783:14 1797:1 1803:10 1833:1 1876:1 1892:18 1893:22 1913:2 1925:8 1954:12 1958:1 1966:1 1978:1 1988:4 1997:2 2031:2 2037:8 2039:5 2057:11 2063:1 2072:7 2175:1 2183:9 2194:1 2267:2 2320:10 2379:10 2389:1 2390:1 2542:3 2588:1 2690:2 2795:2 3014:2 3019:2 3031:2 3047:2 3141:9 3183:1 3259:2 3401:3 3414:7 3466:2 3521:8 3535:1 3725:9 3727:7 3784:2 3804:10 3810:12 3842:12 3944:1 4021:12 4104:1 4139:2 4277:1 4278:1 4330:9 4425:5 4426:12 4470:15 4622:7 5045:1 5127:14 5128:11 5171:1 5199:2 5270:8 5455:1 5464:1 5739:5 5797:2 5812:13 6235:9 6444:1 6734:9 6885:13 6905:2 6945:3 7086:6 7203:1 7242:1 7316:2 7577:1 7723:2 7928:7 8030:1 8164:1 8279:2 8623:5 8900:2 9531:1 9554:2 9615:1 9665:8 9688:1 9895:8 9898:4 10407:1 10576:1 10590:8 10693:1 10704:1 10745:1 10794:10 10852:7 10865:1 10965:1 11557:1 11843:1 11929:1 12908:1 12917:1 13318:1 14443:1 14802:8 14804:1 15380:1 15557:1 15822:1 15829:1 16131:1 16162:1 16166:1 16503:1 16504:1 16560:1 16822:1 17276:1 17496:1 17519:1 17562:1 18609:1 18644:1 18649:1 18932:1 19095:1 19328:1 20192:1 21316:1 22217:1 23238:2 23816:1 24497:1 24658:2 25557:1 25808:2 25851:1 25852:1 26434:1 26748:1 28138:1 30655:1 30767:1 30777:1 31542:1 32505:1 33349:1 34010:2 34457:1 34935:1 34941:1 35352:1 35652:6 35653:3 35654:3 35655:6 35656:1 35657:2 35658:1 35659:1 35660:2 35661:1 35662:1 35663:1 35664:1 35665:1 35666:1 35667:2 35668:1 35669:1 35670:1 35671:1 35672:1 35673:1 35674:1 35675:1 35676:1 35677:1 35678:1 35679:1 35680:1 35681:1 35682:1 35683:1 35684:1 35685:1 35686:1 35687:1 35688:1 35689:1 35690:1 35691:1 35692:1 35693:1 35694:1 35695:1 35696:1 35697:1 35698:1 35699:1 35700:1 35701:1 35702:1 35703:1 35704:1 35705:1 35706:1 35707:1 35708:1 35709:1 35710:1 35711:2 #
-0.00042345395701219606552842544822113 1:1 3:1 19:2 51:3 156:1 450:1 612:1 613:1 887:1 1391:1 9930:1 11224:1 13658:1 20507:1 56599:1 58738:1 97252:1 #
0.00042345395701219606552842544822113 1:1 13:2 19:5 72:1 290:1 427:1 513:1 532:1 588:1 1506:1 1510:1 1511:1 2680:1 3526:1 4616:1 6746:1 #
0.00042345395701219606552842544822113 1:1 3:5 6:49 7:1 8:4 11:1 12:50 13:27 14:10 15:4 16:37 17:14 19:82 20:2 25:7 27:7 35:2 37:3 40:11 42:38 47:1 51:7 52:1 59:6 60:4 61:7 63:6 72:17 75:28 81:10 87:3 94:2 96:6 103:1 107:7 118:2 120:16 121:2 124:1 126:1 131:5 132:6 136:2 140:2 148:6 150:2 151:2 152:1 153:1 154:24 156:21 158:6 162:11 207:5 208:1 213:1 215:2 218:1 221:1 224:1 229:2 234:1 253:1 257:7 271:1 272:21 276:6 277:5 279:2 281:2 283:5 285:15 287:1 290:1 295:21 306:5 310:3 314:4 315:4 331:1 337:1 351:4 352:3 357:4 358:1 365:1 378:3 391:1 404:3 407:6 416:3 422:1 427:1 433:1 439:1 450:11 456:1 459:3 470:1 483:3 512:1 513:4 515:1 522:3 532:1 540:1 551:1 560:1 570:2 579:1 584:2 588:6 594:3 610:1 612:1 613:1 620:1 623:3 659:1 665:2 680:1 686:2 703:1 717:1 729:2 740:4 774:2 783:1 795:1 848:1 857:1 864:2 869:1 873:2 879:3 886:4 887:3 894:1 895:1 898:1 957:1 1022:2 1026:1 1028:1 1363:2 1391:1 1408:1 1409:1 1478:1 1494:1 1502:2 1505:1 1506:6 1509:6 1510:3 1511:1 1513:9 1521:1 1527:1 1528:1 1533:4 1537:1 1544:1 1547:1 1557:1 1563:6 1574:2 1612:4 1613:3 1618:4 1620:2 1622:1 1641:1 1643:4 1740:9 1750:1 1781:1 1785:2 1787:1 1795:5 1833:1 1853:2 1860:1 1879:6 1881:1 1882:2 1883:1 1910:1 1913:1 1917:3 1939:1 1944:1 1953:1 1966:7 1971:1 1977:1 1986:1 1993:1 1996:1 2034:1 2065:2 2123:1 2137:2 2139:1 2189:1 2202:1 2235:2 2236:3 2266:1 2269:1 2272:1 2297:2 2298:1 2299:2 2301:2 2315:1 2320:1 2326:1 2371:1 2380:2 2429:3 2449:1 2489:1 2535:1 2566:1 2572:1 2579:3 2589:1 2594:5 2604:1 2671:2 2686:1 2740:2 2756:3 2775:1 2848:1 2852:2 2891:1 2949:1 2989:1 3011:1 3118:1 3145:3 3151:1 3175:1 3309:1 3358:1 3369:1 3440:1 3506:1 3509:1 3593:4 3733:1 3743:1 3764:2 3766:1 3789:1 3962:3 3964:1 3969:1 3984:2 4044:1 4089:1 4120:3 4130:1 4178:1 4214:1 4458:2 4477:1 4482:1 4603:1 4605:1 4626:2 4642:1 4704:2 4708:2 4712:2 4730:1 4749:1 4799:1 4815:1 4918:1 5117:1 5149:3 5204:1 5239:7 5297:1 5320:1 5340:4 5344:1 5628:1 5668:1 5831:1 5853:1 6028:1 6061:1 6063:1 6077:1 6085:1 6181:1 6192:1 6213:2 6430:1 6454:1 6689:2 6727:1 7437:2 7535:1 7620:1 7958:1 8058:1 8259:1 8260:1 8463:1 8557:1 8744:1 8759:1 8849:1 8851:1 9033:1 9151:1 9309:1 9537:1 9885:1 9887:1 9921:1 9957:1 9974:1 10156:1 10158:1 10299:1 10494:2 10565:7 10719:1 10884:1 10903:1 10985:1 11160:1 11988:1 12132:1 12294:1 12298:1 12417:1 13000:1 13503:1 13504:1 13519:1 13542:1 13666:2 14180:1 14540:4 14728:1 14895:1 15084:2 15175:2 15450:1 15582:1 15789:1 15830:2 15908:1 15991:1 16254:1 16259:1 16299:1 16301:1 16656:1 17646:1 17782:1 17857:1 18065:1 18954:1 19228:1 19296:1 19948:5 20287:1 20288:2 20289:1 20290:1 20291:1 20292:1 20293:1 20294:2 20295:1 20296:1 20297:1 20298:1 20299:1 20300:1 20301:1 20302:1 20303:1 20304:1 20305:1 20306:1 20307:1 20308:1 20309:1 20310:1 20311:2 20312:1 20313:1 20314:1 20315:1 20316:1 20317:1 20318:1 20319:1 20320:1 20321:1 20322:2 20323:1 20324:2 20325:1 20326:1 20327:1 20328:1 20329:1 20330:1 20331:1 20332:1 20333:1 20334:1 20335:1 20336:1 20337:1 20338:1 20339:1 20340:1 20341:1 20342:1 20343:1 20344:1 20345:1 20346:1 20347:1 20348:1 20349:1 20350:1 20351:1 20352:1 20353:1 20354:1 20355:3 20356:1 20357:1 20358:1 20359:1 20360:1 20361:1 20362:1 20363:1 20364:1 20365:1 20366:1 20367:1 20368:1 20369:1 20370:1 20371:1 #
-0.00042345395701219606552842544822113 1:1 3:1 8:2 13:7 15:2 19:19 23:1 25:4 36:2 38:1 40:2 41:1 42:4 47:1 51:2 58:1 59:2 61:5 72:3 75:5 81:1 100:4 107:2 118:2 120:1 124:1 126:2 131:1 132:1 154:2 156:4 162:1 218:3 224:1 257:2 272:1 276:4 280:1 283:1 285:4 297:1 337:1 347:1 352:1 442:2 513:3 532:4 569:1 582:1 588:2 610:1 612:1 613:3 615:1 686:1 787:1 864:3 888:1 989:1 1276:2 1330:4 1391:1 1408:1 1409:1 1425:2 1478:3 1510:1 1511:2 1513:2 1516:1 1552:2 1658:1 1966:1 2023:1 2095:2 2225:1 2226:1 2563:1 2575:1 2576:1 2577:1 2579:1 2877:2 2976:1 3219:1 3373:2 3403:1 3623:1 3710:1 3751:1 3929:1 3981:1 4000:1 4014:1 4576:1 4807:1 5053:1 5155:1 5164:1 7879:1 8382:1 9421:1 10289:1 10351:1 11549:1 13310:1 14150:1 15468:1 17268:1 17973:1 27988:1 33063:1 43665:1 55724:1 55725:1 60278:1 73075:3 73076:1 #
-0.00020638487462727370374410140740906 1:1 3:1 12:1 13:2 20:10 21:1 22:1 25:1 57:1 59:1 75:2 87:1 93:1 121:1 131:1 152:1 154:1 162:1 207:1 208:1 450:1 864:1 883:1 887:1 1411:522 1423:1 1612:1 1883:1 1971:1 2205:1 2585:1 3369:1 3373:1 6963:1 40509:1 56689:1 60161:1 69245:1 81629:1 92613:1 92614:1 #
-0.0004011128119508142186866450629168 1:1 3:60 6:1 8:1 12:4 13:4 16:1 17:1 19:7 20:26 25:3 33:12 42:5 47:1 50:13 51:23 57:2 59:1 72:1 75:6 82:4 83:1 111:4 121:2 124:1 131:1 140:1 151:2 152:8 154:2 156:6 162:1 218:2 225:7 240:1 257:1 263:1 272:1 281:1 283:1 285:1 287:1 290:2 314:1 318:2 450:1 456:1 470:1 525:1 565:1 602:1 606:8 612:2 613:1 615:1 634:1 672:1 730:1 760:59 783:1 852:3 887:1 1018:1 1091:1 1101:1 1204:8 1301:1 1330:1 1350:1 1374:1 1375:1 1390:1 1391:2 1414:2 1425:16 1511:1 1612:1 1644:1 1646:24 1709:1 1730:1 1740:2 1778:1 1795:1 1882:17 1937:1 1966:1 1971:1 1992:1 2041:1 2083:3 2117:6 2212:1 2255:1 2311:1 2328:2 2648:16 2697:1 2739:2 2763:1 3093:1 3203:1 3370:1 3371:1 3659:2 4168:5 4593:1 4642:1 4779:1 5818:37 5868:6 5975:2 6368:1 6809:1 6865:4 7028:5 7441:1 8505:1 8698:4 8757:1 8764:1 8781:1 8805:1 8872:1 9165:1 9193:2 9285:1 9899:1 10137:1 10611:1 11367:7 11380:7 11465:1 11663:2 11886:1 13466:1 13793:1 14063:2 14124:2 14225:1 15515:2 15562:15 16944:1 16998:1 19532:2 20735:3 20938:1 24762:1 25195:1 25412:1 26911:1 28513:18 31282:1 33405:1 38479:1 39453:2 40711:3 42898:1 44819:1 47582:1 47888:1 48327:2 50389:1 50395:1 51544:1 52931:2 53687:1 54836:1 54952:4 55708:1 55820:3 55829:2 56029:1 56203:1 56204:2 56205:1 56206:7 56207:1 56208:1 56209:1 56210:4 56211:4 56212:1 56213:2 56214:1 56215:1 56216:1 56217:1 56218:1 56219:1 56220:1 56221:1 56222:1 56223:1 56224:1 56225:1 56226:1 56227:1 56228:1 56229:1 56230:1 56231:1 #
0.00042345395701219606552842544822113 1:1 3:8 4:1 6:2 8:3 12:1 14:2 16:6 17:5 19:18 20:7 23:2 25:4 28:1 40:5 51:9 60:1 61:1 75:5 81:2 87:1 92:1 93:1 101:1 107:1 111:2 121:4 137:1 140:3 154:7 156:4 207:1 218:1 276:6 280:1 282:1 283:1 285:9 286:1 290:1 295:3 349:3 422:1 427:1 450:9 488:1 513:1 522:1 530:1 581:1 592:1 612:1 613:4 615:1 620:1 654:1 686:1 737:1 864:4 873:1 886:1 887:5 957:1 1275:19 1276:2 1391:2 1481:1 1502:6 1505:1 1513:1 1526:1 1539:1 1563:3 1612:4 1673:1 1795:1 1881:1 1883:1 2051:1 2235:4 2404:1 2569:1 2577:1 2589:1 2592:1 2648:132 2845:1 2877:2 3370:1 3410:1 3436:1 3615:1 3619:1 3653:1 3709:2 4112:1 4160:1 4426:1 4730:4 4815:1 5119:2 5780:1 5903:1 6004:1 6825:1 7205:1 7637:1 8042:1 8107:1 8181:1 8319:2 8402:1 9000:2 9185:1 10261:1 10394:2 11642:1 14891:1 16301:1 18635:1 19717:1 19865:1 20753:2 21634:1 21876:3 22616:1 24580:1 27337:1 30292:1 30625:1 30626:1 30627:1 30628:1 30629:1 31854:1 31855:3 31856:1 #
0.00042345395701219606552842544822113 1:1 12:6 13:1 16:4 19:19 20:7 25:16 30:2 37:1 40:6 41:1 42:19 43:6 51:1 52:5 61:2 71:1 72:36 75:5 81:10 85:1 87:2 100:1 104:1 110:1 131:2 132:5 133:2 137:4 142:1 154:18 156:7 162:7 165:1 212:1 218:1 234:1 252:2 257:6 272:2 282:2 290:2 302:1 314:1 346:1 349:1 427:1 430:1 442:1 450:2 451:2 494:3 515:1 523:1 549:2 558:3 560:1 607:3 609:1 610:1 659:1 670:1 675:1 678:1 686:1 708:1 779:1 783:1 888:1 895:1 915:1 1051:1 1302:3 1307:1 1312:2 1318:1 1325:17 1336:1 1357:1 1374:1 1450:1 1504:2 1511:1 1513:2 1516:3 1550:1 1555:2 1560:1 1579:1 1671:1 1681:1 1682:1 1689:1 1715:1 1751:3 1820:11 1837:3 1887:1 1953:1 1988:4 2013:1 2041:1 2092:1 2192:1 2196:2 2246:1 2288:1 2309:1 2354:1 2356:1 2451:1 2621:1 2649:7 2673:1 2675:1 2690:1 2705:5 2769:11 2777:4 2794:2 2877:1 2907:1 2936:1 2959:1 3019:1 3028:1 3031:2 3203:1 3227:1 3282:3 3370:2 3456:1 3497:1 3554:1 3696:1 3856:1 3924:1 3929:1 3971:1 4014:1 4124:2 4161:1 4270:1 4332:1 4423:2 4476:2 4478:1 4640:2 4651:2 4733:11 4734:2 4803:1 4830:1 4838:1 4839:2 4840:1 4848:1 4868:1 4879:7 5024:1 5640:1 5678:1 6445:1 6518:1 6707:1 6743:1 6779:2 6780:1 7108:1 7416:2 7589:1 7661:2 7725:1 7818:1 7896:1 8799:1 8928:1 8966:1 9030:1 9266:1 9338:1 9686:1 9737:1 9777:4 9827:1 9836:2 10234:1 11365:1 13803:2 15297:1 15341:1 15619:1 16093:1 16979:1 17425:1 17426:1 17427:3 17428:1 17429:1 17430:2 17431:1 17432:1 17433:1 17435:1 17436:1 17437:1 17438:1 17439:1 17440:1 17441:1 22117:1 27309:1 46542:1 46543:1 46544:1 46545:1 46546:1 #
-0.00042345395701219606552842544822113 1:1 3:2 6:7 8:1 12:2 13:3 15:1 16:7 17:4 19:20 20:2 22:1 25:24 29:1 33:1 40:3 42:20 51:2 60:1 61:4 63:1 65:1 68:1 72:1 75:2 81:2 94:1 96:1 103:3 120:2 131:3 132:1 154:8 156:8 157:1 162:3 193:1 211:1 215:1 218:1 224:1 226:2 240:3 241:7 257:2 271:1 272:1 277:1 281:1 282:2 283:1 295:3 305:1 314:1 352:1 358:1 404:1 407:1 450:5 459:2 470:1 497:1 522:1 581:1 588:1 613:1 620:1 740:1 759:1 818:1 821:3 848:1 886:3 888:2 904:1 1033:1 1071:1 1276:1 1391:1 1407:1 1502:2 1503:1 1506:2 1509:1 1511:2 1533:1 1543:2 1584:1 1606:1 1613:1 1618:3 1620:2 1643:1 1677:1 1778:2 1785:1 1788:1 1870:1 1879:1 1888:1 1907:1 1968:1 2075:1 2083:1 2130:3 2258:1 2273:1 2332:1 2380:3 2387:1 2412:1 2535:1 2611:1 2626:1 2648:1 2661:1 2751:3 2897:1 2899:1 3030:1 3206:1 3216:1 3436:2 3524:1 3653:1 4092:1 4205:1 4477:1 5239:1 5343:1 5754:1 5971:1 6204:1 6268:1 6547:1 8009:1 9377:1 9578:1 9942:1 10903:1 13658:1 13856:1 19262:1 19856:1 22730:1 23929:1 25870:1 26731:5 27327:1 30943:1 32103:1 32483:1 43317:6 45161:1 48611:1 56551:1 58705:1 59680:1 59681:1 62901:1 80526:1 80527:1 80528:1 80529:1 80530:1 80531:1 80532:1 80533:1 80534:1 #
-0.00042345395701219606552842544822113 1:1 3:7 19:10 20:33 21:1 22:1 23:1 25:1 42:2 48:1 72:1 94:2 96:2 132:1 148:1 283:2 295:1 957:2 1005:1 1434:1 1447:1 1490:1 1492:1 1548:1 1786:1 1883:1 1892:1 2507:1 2626:3 2740:2 2813:1 3181:1 3638:2 4659:2 5703:1 6129:1 6572:4 6911:1 8411:1 8637:1 8683:1 9266:1 9898:1 11044:1 12056:1 12865:1 12959:1 24658:1 81054:1 81056:1 86403:1 #
-0.00034742800631364697400149665895697 1:1 3:1 8:9 12:3 13:4 16:11 17:2 19:53 20:14 23:4 25:34 34:2 36:1 37:1 40:41 42:69 47:2 51:1 52:2 55:1 56:25 57:5 58:3 59:6 61:12 63:2 65:1 66:5 70:1 72:22 75:19 81:8 85:4 87:1 93:1 94:5 96:5 97:1 98:1 99:1 100:4 101:2 103:2 107:6 110:2 111:2 112:3 118:1 120:11 121:1 127:2 128:2 131:7 136:3 140:5 150:2 151:1 154:39 156:16 162:8 173:1 186:5 191:1 193:2 196:2 207:3 208:2 212:1 213:1 218:10 224:1 232:1 234:5 240:2 257:13 263:9 272:2 276:2 280:1 282:1 283:3 285:6 287:1 295:1 305:1 314:1 319:2 321:2 334:1 337:1 342:3 346:8 347:1 349:2 350:1 352:4 357:2 358:1 359:1 365:3 369:4 374:1 376:1 383:2 384:2 398:1 399:1 407:1 422:11 427:1 432:1 448:1 450:1 459:3 470:3 471:1 481:1 502:1 508:2 510:2 513:3 525:1 527:1 532:2 537:1 549:1 554:1 555:1 570:1 576:2 588:2 592:2 600:2 613:1 636:2 654:3 659:2 672:1 682:4 686:1 688:1 707:1 716:2 721:1 729:1 739:1 740:1 747:1 777:5 848:1 851:1 864:4 872:2 873:1 879:2 886:1 889:2 894:1 895:2 914:1 942:1 961:2 996:1 1021:1 1033:1 1077:1 1100:2 1119:1 1275:1 1276:1 1289:2 1290:3 1292:8 1306:2 1341:1 1342:1 1370:4 1374:5 1478:1 1480:1 1511:1 1513:1 1516:3 1527:1 1533:1 1537:1 1539:1 1586:1 1595:1 1596:1 1612:2 1618:1 1620:4 1630:1 1633:1 1643:2 1646:1 1647:1 1651:2 1681:1 1705:1 1735:2 1737:1 1750:1 1758:1 1776:1 1782:2 1789:1 1796:1 1827:1 1845:2 1869:3 1881:1 1882:1 1911:1 1937:2 1939:1 1966:1 1976:5 2019:2 2023:2 2036:1 2050:1 2054:1 2065:1 2138:1 2146:5 2148:1 2171:1 2209:2 2221:1 2249:1 2255:1 2278:1 2319:1 2346:1 2405:1 2434:2 2451:1 2456:1 2457:1 2517:1 2518:2 2538:1 2579:1 2694:1 2713:2 2744:1 2781:1 2812:1 2835:1 2873:1 2929:1 2949:1 2996:1 3144:1 3164:1 3191:1 3328:1 3559:2 3562:1 3595:1 3617:2 3669:1 3839:1 3876:1 3884:2 3917:11 3929:2 3976:1 4092:1 4144:1 4178:1 4205:1 4317:1 4580:1 4621:2 4709:1 4863:2 4885:2 4921:2 4931:1 5139:1 5148:1 5171:1 5283:2 5296:2 5419:1 5565:1 5780:1 5867:1 5976:55 6036:1 6096:1 6105:1 6489:2 6657:2 6732:1 6743:3 6825:1 6859:1 7061:1 7062:1 7205:1 7212:1 7220:2 7370:2 7408:1 7580:2 7646:1 7731:1 7790:1 7994:1 8084:1 8116:1 8402:2 8419:2 8789:3 8880:2 8903:2 9202:3 9327:2 9420:1 9466:1 9476:1 9623:1 9661:1 9666:1 9688:1 9692:1 9705:1 9749:1 10017:1 10199:1 10234:1 10407:1 10538:1 10818:1 11948:1 12852:2 13068:1 13115:1 13128:1 13217:1 13229:2 13280:1 13377:1 13891:2 13904:1 13932:1 14055:1 14440:1 14728:4 15405:7 15522:1 16052:1 16098:1 16219:1 17830:1 17921:1 17953:1 18263:1 18334:1 18362:1 18783:2 19145:1 19700:1 19779:1 20468:1 22098:1 22521:1 22716:3 23045:1 23545:1 24091:1 24412:1 25330:1 25406:1 25589:1 25807:2 26696:2 26778:1 27444:1 28082:1 33402:1 37008:1 37856:3 38539:1 41061:1 41880:1 43873:1 46936:1 50329:1 52560:1 53142:8 54625:1 54747:1 55402:5 55409:1 55444:2 55457:1 55459:1 55466:1 55481:2 55518:1 55547:2 56605:1 57109:2 57632:1 57633:2 57634:1 57635:13 57636:1 57637:1 57638:6 57639:3 57640:4 57641:2 57642:2 57643:2 57644:3 57645:1 57646:2 57647:1 57648:2 57649:1 57650:1 57651:2 57652:1 57653:1 57654:1 57655:1 57656:1 57657:1 57658:1 57659:1 57660:1 57661:1 57662:1 57663:1 57664:1 57665:1 57666:1 57667:1 57668:1 57669:1 57670:1 57671:1 57672:1 57673:2 57674:1 57675:1 57676:1 #
0.00042345395701219606552842544822113 1:1 3:28 12:24 16:1 17:1 19:17 20:19 31:5 40:7 42:1 47:2 51:11 61:3 75:1 111:4 120:1 140:1 152:1 156:8 224:7 240:10 257:7 283:3 346:1 396:1 486:1 528:1 654:1 760:5 1014:2 1206:1 1275:28 1317:2 1336:1 1411:9 1425:3 1683:3 1684:2 1781:5 1874:1 1933:6 1965:7 1968:2 1988:1 2246:1 2470:1 2471:7 2491:5 2613:10 2660:2 2661:2 2662:1 2663:1 2664:1 2665:1 2666:1 2667:1 2668:1 2669:2 2670:5 2671:1 2672:1 2673:1 2674:1 2675:1 2676:8 2678:1 2740:3 2806:1 2845:1 2846:1 2847:1 2848:1 2849:1 2850:1 3281:8 4178:2 4420:2 4423:1 4427:6 4428:3 4429:3 4430:2 4559:7 4655:1 5552:1 6650:1 7491:1 10218:1 10284:2 11087:1 11535:1 15607:1 15608:1 15609:2 15610:1 15611:1 15612:2 15613:2 15614:2 15615:1 15616:1 49186:1 #
-0.00042345395701219606552842544822113 1:1 19:2 20:4 22:1 25:2 36:1 208:3 240:1 532:1 732:1 1275:5 1503:1 1648:1 1833:1 2859:1 3373:1 5544:1 7356:1 10392:1 10570:1 55108:1 57321:3 85705:1 85706:1 #
9.5260268308633387342003462361362e-05 1:1 3:28 17:1 19:3 25:2 32:2 33:1 40:1 42:2 50:6 52:6 72:2 96:14 99:1 132:2 151:8 152:2 162:2 164:2 239:6 240:2 259:1 346:1 400:1 450:1561 525:4 530:3 559:4 614:11 615:1 652:1 659:2 681:2 746:1 1037:1 1087:5 1127:1 1312:1 1354:1 1486:1 1516:1 1567:1 1572:1 2013:1 2045:2 2131:4 2408:1 2560:1 2567:2 2613:2 2687:14 2868:2 3060:1 3381:1 3484:1 3807:1 4154:1 4616:1 5326:1 6129:1 6574:2 6937:1 7025:2 7371:1 7662:2 7707:1 10601:1 11808:2 13018:1 13891:1 14004:1 16651:1 18220:1 24659:1 25995:1 28450:2 32238:1 35454:1 36118:1 43093:1 43094:1 43095:1 43096:1 43097:1 43098:1 43099:1 43100:1 43101:1 43102:1 43103:1 43104:1 #
-0.00042345395701219606552842544822113 1:1 12:2 25:1 75:1 154:1 156:1 285:1 290:2 303:1 427:1 450:1 1513:1 1992:1 2214:1 2423:1 2426:1 2578:1 2604:1 3230:1 3336:1 3592:1 3598:1 3612:1 5085:1 5633:1 5641:1 5780:1 11296:1 14003:1 14089:1 15179:1 16638:1 18545:1 18978:1 21100:1 24535:1 27393:1 31130:1 33242:1 55021:1 55375:1 55376:1 55377:1 63761:1 87738:1 #
0.00042345395701219606552842544822113 1:1 16:1 19:6 23:1 42:5 52:1 59:2 61:2 72:5 75:4 81:1 100:3 110:1 121:2 152:1 154:2 156:1 180:1 347:1 349:1 354:2 358:1 370:1 442:1 599:1 659:1 716:1 852:1 1148:1 1408:1 1646:1 1859:2 1976:2 2148:1 2177:3 2443:1 2493:1 2795:2 2818:1 2936:2 3198:1 3216:2 5617:1 5869:1 7427:2 10213:3 14506:6 21925:1 24672:1 43239:2 #
-0.00042345395701219606552842544822113 1:1 8:1 13:2 15:1 19:9 25:2 40:3 42:2 58:2 72:1 75:5 87:2 107:2 120:2 121:1 132:4 140:1 148:2 154:6 156:2 158:1 218:2 251:1 272:1 280:1 281:1 285:2 288:1 295:3 314:1 337:1 343:1 352:1 393:1 483:1 490:1 522:1 532:1 571:1 624:1 639:1 665:1 686:1 737:2 821:1 864:2 883:1 1075:1 1480:1 1513:2 1899:1 1966:1 1974:1 1992:1 2380:1 2567:1 2585:1 2597:1 2618:1 2757:2 2809:1 3832:1 3976:1 4794:1 5184:1 6057:1 6721:1 7008:1 7142:1 7796:1 7897:1 8183:1 13803:1 14003:1 14920:1 19256:3 24714:1 40716:2 47580:1 54616:1 55021:1 57209:1 58860:1 59182:1 63733:1 66601:1 72133:1 78913:1 85669:1 85670:1 85671:1 85672:1 #
-0.00042345395701219606552842544822113 1:1 13:3 15:1 16:5 19:1 20:1 25:3 27:11 61:1 81:5 99:5 110:2 140:3 142:1 156:1 276:1 450:1 483:1 496:2 1411:2 1513:1 1612:2 1647:1 1827:1 1966:1 2418:1 2648:1 2669:1 3196:1 5747:1 6430:1 8463:1 10709:1 13282:1 13998:1 17782:3 85665:3 85666:1 #
0.00042345395701219606552842544822113 1:1 6:1 8:1 15:1 16:1 19:3 20:2 25:4 42:3 45:1 59:1 65:1 75:1 120:1 140:1 154:1 156:1 162:1 257:3 272:2 285:1 311:1 351:1 450:1 483:1 513:1 613:1 905:1 957:3 1443:1 1613:1 1651:1 2579:1 2732:1 2859:1 2974:1 3145:1 4132:1 5257:1 9947:1 11303:1 18925:1 #
-0.00042345395701219606552842544822113 1:1 8:1 12:5 13:1 16:1 40:1 107:3 156:1 272:3 285:2 290:1 314:1 450:1 459:1 565:1 654:1 825:1 887:1 957:1 1054:1 1478:1 1513:2 1857:1 1928:1 1953:1 2791:1 3230:1 3593:1 5780:1 8291:1 19490:1 26900:1 33242:2 55179:1 61251:1 63696:1 64787:1 67104:1 68933:1 79050:1 87371:1 94916:1 94917:1 94918:1 #
0.00042345395701219606552842544822113 1:1 3:6 6:1 8:4 16:10 19:27 20:2 23:1 25:6 27:1 28:1 40:2 42:12 47:2 51:1 58:2 59:2 61:2 72:9 75:15 81:7 82:1 92:1 94:1 96:1 103:3 107:1 111:2 120:1 121:3 126:1 131:1 136:1 140:2 151:2 152:1 154:4 156:4 162:2 173:1 207:1 229:1 240:3 253:1 257:6 263:4 265:1 269:1 271:5 272:6 277:2 278:1 285:2 290:2 314:2 315:2 321:1 330:1 337:1 342:1 349:1 352:2 357:1 358:2 359:3 367:1 407:1 427:4 470:1 483:4 485:2 522:1 532:1 570:1 575:1 584:1 620:1 622:2 659:1 677:1 680:1 686:1 717:1 738:2 742:1 743:1 832:1 848:1 864:2 886:2 894:3 961:1 1307:2 1472:1 1480:1 1489:2 1502:3 1510:1 1511:2 1520:1 1521:1 1530:1 1540:1 1543:5 1567:1 1603:7 1606:1 1609:1 1612:1 1613:3 1639:1 1643:1 1669:1 1698:2 1701:1 1735:1 1799:3 1839:2 1883:2 1921:1 1966:1 2246:1 2255:2 2290:1 2349:1 2544:1 2579:1 2835:1 2859:1 2885:1 2888:2 2911:1 2949:1 2972:1 3281:2 3466:1 3555:1 3593:1 3639:1 3651:1 3685:1 3915:1 3929:1 4014:1 4066:1 4089:2 4093:1 4112:2 4281:1 4855:1 5213:2 5222:1 5239:1 6033:1 6074:1 6272:1 6445:1 7167:1 7226:2 8362:1 8876:1 9514:1 10569:1 11836:2 11936:1 12953:1 12954:1 12955:1 12956:1 13329:1 16097:1 18896:1 38402:1 38403:1 #
0.00042345395701219606552842544822113 1:1 3:1 6:1 19:3 20:6 23:1 25:1 28:1 42:2 47:1 61:2 103:1 121:1 156:1 315:1 352:1 416:1 703:1 872:1 889:1 1336:1 1447:1 1478:1 1620:1 1664:1 1775:1 1988:2 2207:1 2434:1 2775:3 2800:1 2824:1 3011:1 3031:1 3280:1 3334:1 3360:1 4593:1 4596:1 5212:1 8087:1 8171:1 9724:1 14851:1 16785:1 19756:1 20735:1 #
-0.00042345395701219606552842544822113 1:1 6:5 8:5 13:6 15:2 19:14 25:7 35:2 40:7 42:8 47:1 59:4 61:1 72:8 75:6 81:2 87:2 94:3 96:3 107:1 120:3 121:2 124:1 126:1 131:2 140:2 142:1 154:3 156:3 162:3 213:1 218:2 225:1 263:1 271:1 272:3 283:2 285:3 295:1 314:1 352:6 357:4 407:1 422:1 451:1 459:1 470:1 508:1 513:1 532:2 565:1 615:1 620:2 624:1 659:1 670:1 686:3 717:1 812:1 856:1 864:2 894:1 950:1 952:1 1022:1 1052:2 1147:1 1365:1 1407:1 1409:1 1472:2 1478:1 1502:1 1509:1 1516:1 1520:1 1521:1 1543:7 1557:1 1558:2 1563:1 1613:1 1648:1 1746:1 1831:1 1939:1 2001:1 2059:1 2095:1 2250:1 2308:1 2331:2 2385:2 2387:1 2455:1 2522:2 2535:1 2589:1 2690:1 2845:1 2877:1 2966:1 3128:1 3162:1 3219:1 3247:1 3435:1 3872:1 4060:1 4112:1 4682:1 5149:1 5333:1 5554:1 5854:1 6018:1 6051:1 6381:1 6577:1 6586:1 6611:1 6974:1 7684:1 8337:2 8885:1 9293:1 11791:1 12208:1 13452:1 15168:1 19011:1 19413:1 20394:1 20395:1 20404:1 20753:1 21516:2 24391:1 25174:1 26706:1 27912:1 30790:2 31860:1 37534:4 44725:1 81595:2 88584:1 99105:1 99106:1 #
0.00042345395701219606552842544822113 1:1 3:1 4:1 19:4 42:1 51:2 75:2 118:1 162:1 613:1 1391:1 1478:2 1513:1 1749:1 1775:1 2587:2 2877:1 3328:1 3370:1 3371:1 3372:1 3466:1 5231:1 5471:3 9042:1 9043:1 #
0.00026564948282626986821378101133462 1:1 3:9 8:3 12:5 13:8 15:3 16:7 17:3 19:21 20:7 22:1 23:2 25:13 27:2 28:1 29:1 33:1 40:1 42:10 50:1 51:9 52:1 59:1 61:6 72:2 75:6 81:4 82:1 87:1 94:4 96:4 99:2 100:2 103:1 107:1 109:2 110:3 112:2 120:1 121:2 124:1 132:2 140:3 149:1 152:3 154:4 156:2 158:1 175:1 218:1 229:1 240:1 257:2 272:6 277:1 283:1 295:2 314:1 318:1 346:1 351:1 352:2 398:1 407:1 426:1 427:1 450:3 451:1 513:4 536:1 549:1 565:2 591:1 592:1 612:2 614:2 615:2 654:1 670:1 680:1 689:1 760:1 821:1 864:1 877:1 957:4 1045:1 1050:1 1064:1 1275:246 1276:1 1330:1 1336:1 1353:1 1391:2 1408:1 1425:1 1478:1 1480:1 1486:1 1513:3 1520:1 1521:1 1532:5 1606:1 1618:2 1775:2 1781:1 1833:3 1853:1 1879:1 1966:1 1971:1 2196:1 2221:1 2416:1 2569:3 2800:1 2877:2 2966:1 3146:1 3151:1 3198:3 3265:2 3358:1 3370:1 3372:2 3396:1 3435:2 3481:1 3485:1 3499:1 3639:1 3696:1 3701:3 3711:1 3775:1 4092:1 4238:1 4448:2 4697:1 4798:1 5025:1 5119:1 5193:1 5212:1 5250:1 5251:2 5350:1 5464:1 5826:1 6296:1 6430:1 6531:1 7157:1 7158:6 7587:2 7589:1 7915:1 8372:1 8384:1 10034:1 10071:1 10072:2 10073:2 10075:1 10076:3 10077:2 11065:1 12447:1 15239:1 18239:1 21109:1 21630:1 21837:1 44627:4 45454:1 51344:2 51345:1 #
0.00042345395701219606552842544822113 1:1 3:18 8:6 12:2 13:4 15:1 19:27 20:11 23:1 25:9 33:1 37:1 40:4 41:1 42:4 51:14 53:1 58:1 59:1 61:7 72:1 75:6 81:1 87:1 94:2 96:2 101:1 107:1 110:4 111:2 120:1 121:1 132:2 136:1 137:1 140:2 154:2 156:3 162:2 187:1 191:1 207:2 215:1 218:3 240:2 257:1 272:1 276:2 283:2 285:1 295:1 305:2 321:1 322:2 330:1 352:1 407:1 439:1 442:1 513:1 558:9 570:1 592:1 607:1 612:1 613:4 614:1 659:1 686:2 722:1 729:1 759:1 771:1 821:1 846:2 856:2 864:2 878:1 904:1 1012:1 1014:1 1016:1 1100:2 1269:1 1342:1 1374:1 1391:4 1409:1 1421:1 1447:2 1477:1 1478:3 1480:1 1513:14 1516:1 1539:1 1546:3 1559:2 1586:1 1595:1 1612:1 1646:1 1715:1 1735:1 1749:1 1797:1 1853:1 1857:1 1903:1 1921:1 1925:1 1940:1 1967:1 1974:3 1992:1 2050:1 2182:1 2207:1 2209:1 2246:3 2349:1 2495:1 2562:1 2572:1 2648:1 2653:1 2812:1 2877:2 3219:1 3370:1 3372:2 3373:1 3416:1 3420:1 3437:1 3456:1 3466:1 3501:1 3533:1 3626:1 3696:2 3711:1 3976:1 3991:1 4461:1 4796:1 4803:1 4966:1 5186:1 5221:1 5280:1 5719:1 6052:1 6238:1 6458:1 6683:1 7004:1 7896:1 8402:1 8757:1 8781:1 9380:1 9836:2 10812:1 10818:1 11791:1 13297:1 13311:1 14359:1 14786:1 14918:8 14919:3 14920:1 14922:1 14923:1 14924:1 14925:1 14926:1 14927:1 14928:1 14929:1 14930:1 14931:1 14932:1 14933:1 14934:1 25143:1 30121:3 30122:1 30123:1 30124:4 30125:1 #
-0.00042345395701219606552842544822113 1:1 6:1 8:1 14:1 15:1 16:1 17:1 19:24 20:12 23:2 25:21 33:1 40:11 42:32 47:1 59:3 61:1 63:3 72:5 75:12 87:3 93:1 94:1 96:1 105:1 107:2 111:1 120:6 121:1 124:1 131:6 132:2 140:1 142:1 148:3 152:1 154:8 156:14 162:5 174:1 186:2 190:1 212:2 236:1 240:1 241:11 257:1 258:2 263:2 272:6 276:4 277:3 280:1 283:3 295:7 306:6 314:1 315:2 345:1 356:2 378:1 385:1 404:2 422:1 456:2 459:2 481:2 483:1 503:1 522:1 525:1 550:7 579:1 592:1 594:1 610:1 616:1 620:1 675:1 680:1 684:1 691:1 729:1 737:1 775:1 800:2 811:1 832:2 875:1 879:2 886:2 898:1 961:1 996:1 1078:1 1137:3 1208:1 1231:1 1290:2 1373:1 1505:1 1508:1 1516:1 1537:1 1592:1 1831:2 1874:1 1879:1 1904:1 1905:1 1912:1 1913:1 1937:1 1962:1 1971:1 2034:1 2062:1 2090:1 2113:1 2156:1 2189:1 2196:1 2246:1 2290:1 2324:1 2329:1 2404:1 2443:1 2451:1 2461:1 2475:1 2510:2 2538:1 2544:1 2575:1 2592:1 2690:1 2740:1 2751:1 2780:2 2801:1 2917:1 2921:1 2977:1 3011:1 3039:1 3151:1 3178:1 3249:1 3250:1 3301:1 3362:1 3389:2 3480:1 3490:2 3514:1 3522:1 3634:1 3637:1 3685:1 3915:1 3932:1 3942:1 3970:1 3976:1 4164:1 4593:1 4860:1 5130:1 5283:4 5347:1 5622:1 5876:1 5971:1 6112:1 6135:1 6163:1 6430:1 6577:1 6690:1 7062:1 7137:1 7142:1 7642:1 7644:1 7914:1 7935:1 8045:1 8059:1 8164:1 9290:2 9377:1 9657:1 9741:1 9921:1 9969:1 10456:1 10523:1 10637:1 10820:1 10839:1 11080:1 11804:2 11815:1 12285:1 12294:1 13281:3 13294:4 13298:1 13506:1 13727:3 14180:1 14184:2 14198:1 14210:1 14222:2 14392:1 15164:2 15165:1 15518:2 16078:1 16463:1 16514:1 16757:1 17521:1 17537:1 18055:1 18086:2 19704:1 21103:1 22741:1 23089:1 23870:2 23909:1 25350:1 26777:2 26893:5 26901:4 26904:2 26941:2 28065:1 28133:1 29155:1 30902:1 36257:2 36565:1 38007:1 38924:1 45085:3 45087:1 45088:1 46095:1 47796:1 48841:1 50285:1 53395:2 54995:1 55608:1 56080:1 56081:1 56082:1 56083:1 56084:3 56085:1 56086:2 56087:1 56088:2 56089:1 56090:1 56091:1 56092:1 56093:1 56094:1 56095:1 64589:1 #
-0.00042345395701219606552842544822113 1:1 3:4 6:2 12:1 16:2 19:3 25:34 40:1 51:4 59:1 61:1 81:1 99:1 111:1 132:2 154:2 162:1 271:2 285:1 314:1 319:1 337:1 407:1 459:2 462:1 613:1 818:1 1204:1 1225:1 1391:1 1423:1 1503:1 1513:1 1543:2 1643:1 1878:1 1882:1 2041:2 2246:1 2688:1 2775:1 3145:1 3336:1 3369:1 3768:1 6988:1 7524:1 8524:1 8614:1 9563:1 9974:1 10165:1 10392:1 11815:1 15986:1 17643:1 22207:1 24098:1 24762:1 26564:1 27722:1 32915:1 38444:1 41511:1 44216:1 47907:1 54952:1 54953:1 55711:1 56105:1 57022:1 57023:1 57024:1 57025:1 57026:1 57027:1 57028:1 57029:1 57030:1 57031:1 57032:1 57033:1 57034:1 57035:1 57036:1 57037:1 57038:1 57039:1 57040:1 57045:1 57858:1 67178:1 78798:1 87660:1 87661:1 87662:1 87663:1 87664:1 87665:1 87666:1 87667:1 87668:1 87669:1 #
0.00042345395701219606552842544822113 1:1 3:9 8:2 12:5 13:4 15:1 16:4 17:1 19:11 20:3 25:10 27:2 29:1 33:1 40:8 41:1 42:4 48:1 51:5 52:1 54:1 56:1 59:1 61:1 71:1 72:1 75:5 81:3 87:1 94:2 96:2 99:1 100:2 110:2 120:1 121:1 131:1 132:4 140:3 149:1 152:1 154:6 156:2 158:1 162:1 207:1 218:1 253:1 257:1 272:3 310:1 314:1 318:1 329:1 354:1 398:1 416:1 422:1 426:1 489:1 522:1 530:1 555:1 587:1 614:2 615:2 677:1 680:1 681:2 689:2 740:1 760:1 787:1 898:1 929:1 957:4 1050:2 1137:2 1275:204 1417:1 1425:1 1513:3 1516:1 1539:1 1618:1 1781:1 1795:1 1853:2 1883:1 1968:1 2062:1 2159:1 2196:2 2393:1 2424:1 2569:2 2596:1 2681:1 2732:1 2769:1 2801:1 2831:1 2852:1 3249:1 3259:1 3265:1 3336:1 3354:1 3355:1 3358:1 3396:1 3409:1 3426:1 3432:1 3435:1 3784:1 3970:1 4630:1 4694:2 5119:2 5193:2 5212:1 5250:1 5350:1 5768:1 6226:1 6430:3 6531:1 7153:2 7154:1 7155:1 7157:4 7158:4 8748:1 9617:1 9686:1 10034:1 10518:3 10519:1 10818:1 10985:1 19475:1 21106:1 22662:1 22804:1 22805:1 22806:1 22807:1 22855:1 22856:1 22857:1 22858:1 22859:1 #
-0.00042345395701219606552842544822113 1:1 3:3 6:1 19:10 20:6 25:7 40:1 42:1 193:1 214:1 257:1 272:1 349:1 399:2 404:1 450:1 539:1 832:1 852:1 888:1 899:1 1276:1 1539:1 1550:1 1553:1 1563:1 1833:1 2115:1 2246:1 2578:1 2877:1 3151:1 3499:1 3504:1 3655:1 3915:1 6911:1 7134:1 7172:1 8814:1 9344:1 9527:1 9712:1 9999:1 10835:1 11616:1 11920:1 12252:1 12463:1 14354:1 16175:1 19760:1 22568:1 26386:1 30012:1 31777:1 41392:1 81352:1 81353:1 #
0.00042345395701219606552842544822113 1:1 3:5 8:2 13:4 19:9 20:3 25:2 40:1 42:2 51:2 61:3 72:1 75:4 94:4 96:4 107:1 109:1 118:1 121:1 140:5 154:2 156:3 157:1 162:3 218:1 240:1 257:3 314:1 318:2 330:1 352:1 378:1 427:1 442:1 513:2 532:1 610:1 612:1 613:3 655:1 682:1 771:1 864:2 957:2 1091:2 1269:1 1276:2 1390:2 1391:1 1408:1 1478:4 1491:2 1513:4 1552:2 1572:1 1646:2 1683:1 1735:1 1750:1 1751:2 1857:1 1912:1 1940:2 1969:1 1975:1 2013:1 2095:2 2255:1 2258:2 2514:1 2572:1 2877:2 3485:1 3711:1 3976:1 4549:2 4559:2 5277:1 5419:1 6224:1 6990:1 7896:1 10307:2 10736:2 13442:1 13978:1 14069:1 18568:2 18829:3 18830:1 18833:2 18834:1 36179:1 39003:1 42849:1 42850:1 42851:1 42852:1 #
-0.00042345395701219606552842544822113 1:1 12:2 13:2 16:2 19:7 25:2 40:1 41:1 42:1 60:1 61:1 71:1 72:2 75:3 81:1 87:1 100:2 107:1 131:1 132:1 154:3 156:4 162:1 218:1 282:1 283:1 285:4 290:1 416:1 422:1 450:1 486:1 570:2 678:1 682:1 864:1 879:1 886:1 1275:108 1390:1 1445:1 1513:3 1552:1 1613:2 1622:1 1651:1 1746:1 1968:1 2356:1 2557:1 2606:1 2775:1 3145:1 3192:1 3416:1 4136:1 6036:1 6459:2 7149:1 9417:2 10575:1 55642:1 55646:1 55650:1 58758:1 58761:1 58762:1 59203:1 60130:1 60131:1 60132:1 60133:1 60134:1 60135:1 #
0.00042345395701219606552842544822113 1:1 6:1 8:2 19:2 20:2 25:1 42:1 75:2 87:1 104:1 107:1 131:1 140:1 154:1 162:1 226:1 257:1 272:1 279:1 285:1 331:1 337:1 352:1 416:1 427:1 483:1 486:2 680:1 1478:1 1503:1 1506:1 1513:1 1563:1 1575:1 2034:1 2241:2 2308:1 2514:1 2840:1 3743:1 6025:1 10325:1 #
0.00042345395701219606552842544822113 1:1 3:2 12:1 13:3 15:1 19:11 25:2 40:1 42:1 51:4 75:1 126:1 132:3 140:1 154:1 276:2 314:1 315:1 450:1 483:1 513:1 565:2 570:1 612:1 613:1 686:1 818:2 1276:2 1290:1 1391:2 1513:2 1557:1 1612:1 1751:2 1883:2 1969:2 2033:1 2562:1 2694:5 2695:1 3711:2 5419:1 5764:1 6020:2 24520:1 24521:1 #
-0.00042345395701219606552842544822113 1:1 8:1 19:3 42:1 75:1 94:1 96:1 257:1 422:1 613:1 763:1 877:1 1276:1 1447:1 2207:2 2968:2 3538:3 3746:1 4014:1 4199:1 10745:1 99947:1 #
0.00042345395701219606552842544822113 1:1 3:2 10:1 12:1 13:1 16:1 19:170 23:1 25:5 33:65 35:3 40:2 41:3 42:10 48:2 50:4 51:1 52:1 61:1 65:3 72:2 75:10 77:1 81:1 83:8 87:4 93:41 99:17 103:1 107:2 111:1 116:1 120:1 126:3 131:1 149:1 151:1 152:3 154:4 156:2 162:1 218:2 239:1 240:2 244:2 276:2 278:1 285:3 290:1 305:2 309:1 318:5 322:1 358:1 366:1 368:2 370:2 428:1 450:5 525:1 530:33 535:1 536:7 592:2 598:2 614:23 639:3 652:3 659:1 682:1 734:1 737:2 759:3 774:4 848:1 864:1 888:1 889:1 894:1 913:1 961:13 962:3 968:1 976:1 1014:1 1018:1 1022:1 1028:4 1037:1 1041:1 1047:8 1057:4 1060:1 1078:4 1080:1 1086:1 1147:1 1365:8 1434:2 1447:1 1462:1 1466:3 1480:1 1506:3 1513:3 1528:4 1530:5 1539:1 1552:1 1563:5 1580:2 1591:1 1592:6 1598:6 1612:3 1645:1 1652:8 1733:1 1772:1 1783:1 1796:4 1851:1 1857:1 1879:1 1931:8 2039:2 2050:1 2183:5 2246:1 2320:4 2353:1 2379:1 2495:3 2589:1 2654:1 2910:1 2911:1 3018:4 3141:1 3193:1 3238:1 3414:1 3436:1 3753:1 3804:10 3810:1 3854:3 3856:1 3920:1 3957:6 3998:4 4154:3 4447:2 4470:1 4569:1 4815:3 4918:1 4986:4 5127:1 5155:3 5270:3 5854:1 5866:3 6031:14 6066:3 6235:1 6353:6 7031:1 7167:3 7193:2 7472:1 7639:1 7940:2 8925:3 9301:4 9665:1 9895:1 10590:1 10794:2 11022:1 11152:1 11710:1 13724:2 13831:2 17329:1 17730:1 18723:1 20931:4 22442:6 32711:2 47231:1 47232:6 47233:4 #
0.00042345395701219606552842544822113 1:1 3:8 8:1 13:8 15:1 16:2 17:1 19:12 20:41 22:1 23:1 25:114 27:1 28:1 33:2 34:2 42:10 48:2 50:2 51:7 52:2 59:1 61:3 72:3 75:5 81:1 82:1 87:1 93:2 94:3 96:3 107:1 109:1 111:2 121:2 124:1 131:1 132:2 140:2 151:2 152:2 154:1 156:21 158:1 162:2 229:1 239:2 240:3 257:1 259:1 272:2 283:1 294:2 295:2 305:3 306:1 311:1 330:1 346:1 352:3 373:1 398:1 416:1 424:1 426:1 442:1 456:1 513:4 525:2 530:2 565:2 592:2 612:2 615:1 620:1 651:1 659:2 682:1 760:4 821:1 864:1 877:1 879:2 889:1 957:2 961:2 962:2 969:2 986:2 996:2 1043:2 1045:1 1064:1 1071:2 1149:2 1276:1 1330:1 1336:1 1391:2 1397:3 1408:1 1425:36 1431:1 1440:1 1447:1 1472:1 1478:2 1481:5 1483:2 1488:1 1504:1 1513:5 1519:3 1562:3 1609:3 1618:1 1636:1 1740:1 1748:1 1775:1 1790:18 1804:2 1808:1 1813:1 1816:1 1838:1 1879:1 1966:1 2033:5 2065:2 2106:1 2140:2 2168:1 2242:1 2244:1 2308:1 2364:2 2365:1 2383:1 2519:5 2567:1 2569:2 2649:1 2753:2 2808:1 2821:2 2877:1 3044:3 3047:5 3049:2 3055:1 3060:4 3070:1 3076:3 3080:1 3085:1 3092:1 3128:1 3151:1 3176:1 3198:1 3265:1 3286:2 3370:1 3372:1 3381:1 3481:1 3485:1 3516:2 3639:1 3696:1 3701:3 3711:1 3743:4 3775:1 3784:2 3812:1 3919:1 3991:1 3993:2 4004:1 4066:1 4078:3 4130:1 4132:1 4244:1 4524:1 4618:1 4647:2 4740:2 4770:1 4798:1 4979:1 4988:1 5016:1 5192:2 5299:1 5314:1 5315:1 5396:1 5417:1 5464:1 5511:1 5587:1 5608:1 5826:1 5927:1 5930:1 5931:1 6268:1 6299:1 6528:1 6531:1 7053:1 7066:1 7109:1 7157:1 7158:5 7206:4 7246:1 7258:1 7276:1 7318:1 7319:1 7342:1 7358:1 7369:2 7589:1 7596:1 7628:2 7640:1 7706:1 7896:1 7960:1 7974:1 7983:1 8319:1 8372:1 8399:1 8417:1 8472:1 8489:1 8493:1 8764:2 8931:1 9056:1 9155:2 9596:1 10034:1 10071:1 10072:1 10073:1 10075:1 10076:3 10203:1 10313:1 10394:1 10911:1 11065:1 11128:1 11135:2 11193:1 11724:2 12320:1 12530:1 13045:1 13054:1 13475:1 13909:1 14045:1 14077:1 14173:1 14608:1 14838:1 15262:1 15264:1 15340:1 15958:1 15959:1 16239:1 16322:1 16393:1 16452:1 16602:1 17009:1 17491:1 18300:2 18591:1 18980:1 19373:2 20425:1 20606:1 20623:1 20821:1 20914:1 21090:1 21109:1 22336:1 22894:1 23285:1 24642:1 25945:2 25946:1 25947:1 25948:1 25949:1 25950:1 25951:1 25952:1 25953:1 25954:1 25955:1 25956:1 25957:1 25958:2 25959:2 25960:1 25961:1 25962:1 25963:1 25964:1 25965:1 25966:1 25967:1 25968:1 25969:1 25970:1 25971:1 25972:1 25973:1 25974:1 25975:1 25976:1 25977:1 25978:1 25979:1 25980:1 25981:1 25982:1 25983:1 25984:1 25985:1 25986:1 25987:1 25988:1 25989:1 25990:1 25991:1 25992:1 25993:1 25994:2 25995:1 25996:1 25997:1 25998:1 25999:1 26000:1 26001:1 26002:1 26003:1 26004:1 26005:1 26006:2 26007:1 26008:1 26009:1 26010:1 26011:1 26012:1 26013:1 26014:1 26015:1 26016:1 26017:1 26018:1 26019:1 26020:1 26021:1 26022:1 26023:1 26024:1 #
0.00042345395701219606552842544822113 1:1 8:9 15:2 16:6 19:35 20:2 23:5 25:31 32:1 33:2 40:11 42:34 48:1 52:1 55:2 56:2 57:11 59:1 61:4 65:1 66:1 72:13 75:19 81:5 85:12 87:7 103:13 104:2 109:4 110:18 111:2 112:8 113:12 120:2 121:10 123:1 126:1 131:4 132:3 136:2 138:3 142:3 147:2 151:1 152:1 153:1 154:9 156:5 162:1 165:2 191:3 193:1 194:2 207:4 208:11 209:1 213:1 214:2 218:7 232:1 239:1 240:10 241:7 254:12 256:1 257:2 262:1 263:1 277:1 283:2 288:1 295:2 306:2 321:3 323:1 326:2 331:2 332:1 344:1 349:1 352:2 357:3 365:1 366:1 367:1 368:1 369:3 370:1 379:1 391:1 393:2 399:3 416:1 422:4 428:7 429:2 470:1 489:1 494:1 522:1 532:2 555:2 594:1 620:1 652:1 659:1 676:2 686:11 689:1 707:1 721:1 729:1 780:2 821:2 838:1 848:2 867:2 894:2 961:1 962:2 996:1 1028:2 1033:1 1037:1 1066:1 1076:1 1078:2 1080:1 1081:1 1091:1 1117:1 1312:1 1374:2 1453:1 1466:1 1467:1 1517:1 1537:1 1552:1 1578:1 1586:2 1592:1 1598:1 1635:1 1643:3 1645:1 1646:1 1703:1 1730:1 1757:1 1765:1 1783:1 1789:2 1795:1 1857:1 1876:1 1939:4 1968:1 1977:2 2074:1 2184:1 2354:1 2361:1 2373:2 2495:3 2592:2 2649:8 2721:1 2728:1 2772:1 2798:1 2801:1 2804:1 2857:1 2955:3 2972:1 3280:1 3445:1 3551:1 3617:3 3810:1 3917:9 3920:1 3933:1 4470:1 4480:3 4508:1 4931:2 5103:2 5126:1 5135:1 5139:1 5364:1 5617:1 5668:1 5696:9 5723:2 6131:1 6272:1 6311:1 6638:3 6824:1 6842:1 7213:3 7639:1 8084:2 9502:1 9559:1 10141:1 10213:1 10417:2 10538:1 11752:1 12651:1 12692:9 13115:1 13741:1 14216:1 14258:1 14373:2 14469:1 14845:2 15537:1 16445:3 18263:1 19735:3 19755:1 19760:1 20674:1 21940:1 23990:1 25758:4 26212:4 26673:1 26759:1 28962:1 29052:1 35772:3 46832:1 #
-0.00042345395701219606552842544822113 1:1 12:6 16:36 19:3 20:2 25:3 27:2 40:1 42:1 47:1 81:1 87:1 96:1 120:1 140:2 151:1 152:2 162:1 450:1 483:1 532:1 654:1 659:1 1173:1 1307:2 1423:1 1492:1 1584:1 1612:1 1752:1 1790:1 1882:1 2623:1 3016:3 3235:1 3259:1 3268:2 5192:1 5526:1 5530:1 6470:1 7635:1 7651:1 7668:3 9526:1 11539:1 11851:1 12906:1 13229:1 13633:2 15084:1 15962:1 15964:1 16703:1 16856:2 18898:1 22526:1 22985:1 25704:1 25764:1 27108:1 27737:1 33405:1 36517:1 39109:1 41571:1 45773:1 50047:1 53842:1 54648:1 55541:4 56588:1 56616:1 57784:1 58848:1 59345:1 59940:1 61082:1 62148:1 63701:1 67024:1 72397:1 72661:1 75589:1 78791:1 82686:1 82687:1 82688:1 82689:1 82690:1 82691:1 82692:1 82693:1 82694:1 82695:1 82696:1 82697:1 82698:1 82699:1 82700:1 82701:1 #
0.00042345395701219606552842544822113 1:1 3:7 16:1 19:69 20:15 21:1 22:1 23:1 25:5 28:1 31:1 32:1 36:1 40:2 45:1 46:1 59:1 60:1 72:1 75:1 81:1 85:2 87:1 94:1 96:1 103:1 111:1 118:1 121:1 152:1 154:3 156:2 162:1 229:1 271:4 283:1 295:1 407:2 525:1 576:1 740:1 749:1 774:1 775:1 832:2 873:1 874:1 879:1 1022:1 1423:1 1471:1 1488:1 1494:1 1495:1 1509:2 1543:1 1563:2 1597:1 1748:1 1760:1 1823:1 1879:1 1966:1 2083:2 2315:1 2397:1 2579:3 2690:1 2852:1 3066:2 3738:1 3958:1 3959:1 3960:1 3961:1 4759:1 6689:1 7185:1 15450:1 19644:1 42294:1 42295:1 42296:1 42297:1 #
0.00042345395701219606552842544822113 1:1 3:1 6:3 13:2 19:4 20:1 25:1 42:1 45:1 63:1 75:2 90:1 156:1 162:1 218:2 272:1 315:1 499:1 522:1 740:1 1325:1 1407:1 1423:1 1651:1 1663:1 1740:1 2519:1 3396:1 3696:1 3769:1 3827:1 4447:1 5149:1 6033:1 8759:1 8810:1 18585:1 22224:1 22225:1 22226:1 #
-0.00042345395701219606552842544822113 1:1 6:1 13:1 17:1 19:4 20:10 21:1 25:3 33:7 61:2 72:2 100:1 140:1 154:1 210:1 337:1 365:1 450:28 480:1 654:1 771:1 864:1 1267:1 1276:1 1542:1 1563:1 1676:1 2095:1 2489:1 2648:14 2775:2 2981:7 3189:1 3244:1 3932:1 5053:1 5199:1 8425:1 13083:1 22442:1 24762:1 33006:1 36538:1 48899:1 57012:7 57317:1 67879:1 68129:1 73685:1 73686:1 73687:1 73688:1 73689:1 73690:1 #
0.00042345395701219606552842544822113 1:1 3:1 6:1 13:1 15:1 19:4 20:26 23:1 28:1 40:1 42:1 47:2 63:1 75:1 94:1 96:1 257:1 277:1 600:1 612:1 799:1 1423:1 1563:1 1747:1 2626:1 4694:1 5751:1 8222:2 8223:1 14324:1 22646:1 32733:1 #
0.00042345395701219606552842544822113 1:1 2:1 3:18 4:1 6:2 7:1 8:6 9:1 10:1 12:3 13:2 14:1 16:7 17:2 19:45 20:21 21:1 22:2 23:4 25:26 28:2 32:1 35:1 36:2 37:1 40:6 42:49 47:1 51:11 59:1 61:1 63:5 65:1 72:24 75:16 81:2 82:1 83:1 84:1 87:2 92:1 93:1 103:1 105:2 106:5 107:4 111:1 118:1 120:11 121:1 124:1 126:1 131:2 132:4 136:1 137:1 138:4 140:2 148:4 152:2 153:1 154:11 156:16 158:1 162:5 182:1 191:1 207:3 208:8 212:1 218:5 223:1 226:1 257:4 263:2 272:4 277:2 278:1 282:3 283:1 285:2 290:1 295:8 305:1 306:8 309:1 314:2 315:3 321:1 335:1 349:1 351:3 365:1 378:4 384:1 422:3 433:1 450:9 459:1 463:1 466:1 470:2 472:3 474:4 488:1 522:1 530:1 532:1 560:2 561:1 567:1 575:1 579:1 584:2 597:1 598:1 609:1 612:1 613:6 615:1 620:1 632:2 652:1 654:1 660:1 670:5 672:1 678:1 682:4 686:1 728:1 737:12 760:14 775:1 781:1 814:1 879:1 883:1 888:1 894:2 898:1 913:1 950:4 955:2 972:1 1048:2 1086:1 1087:1 1261:1 1275:1 1276:3 1290:1 1311:1 1318:1 1380:1 1391:3 1397:1 1411:24 1414:3 1447:1 1451:1 1490:1 1492:1 1513:2 1516:1 1521:1 1526:1 1532:1 1542:3 1552:1 1553:1 1573:1 1592:1 1612:1 1617:1 1618:1 1644:3 1648:1 1658:1 1671:1 1673:1 1775:1 1785:2 1839:1 1881:1 1883:2 1925:1 1953:2 1997:1 1998:2 2037:2 2047:1 2050:1 2054:1 2059:2 2148:1 2299:1 2308:1 2311:3 2315:4 2326:2 2341:1 2359:1 2377:1 2456:1 2461:1 2482:2 2493:1 2569:1 2574:1 2648:132 2653:1 2667:1 2694:4 2755:1 2767:1 2790:2 2835:1 2877:2 3085:1 3151:2 3178:2 3192:1 3370:1 3422:2 3559:1 3616:1 3653:1 3698:1 3709:2 3817:1 3842:2 3915:1 3987:2 3991:1 4004:1 4115:1 4178:1 4199:1 4426:2 4439:1 4455:1 4692:1 4737:1 5043:1 5119:2 5204:1 5270:2 5408:1 5463:1 5526:1 5623:1 5629:1 5779:1 5808:1 6003:1 6023:1 6151:1 6373:1 6381:5 6607:1 6689:1 6734:1 7024:1 7524:1 7643:1 7900:1 7928:1 8026:1 8116:1 8131:1 8161:2 8164:1 8315:1 8343:1 8419:1 8472:1 8614:1 8957:1 9185:1 9314:1 9581:1 9665:1 9898:1 10010:1 10111:1 10903:1 11372:1 11466:4 11565:2 11682:3 12208:1 12557:1 12688:1 12714:1 13265:1 13551:2 13727:2 14223:2 14260:2 14365:1 14373:1 15127:1 15151:1 15159:2 15332:2 15831:4 16497:1 16625:2 16917:1 17055:1 17590:1 17942:1 17953:1 18258:4 18287:1 18448:1 19664:1 19684:1 19914:1 20291:1 20404:2 20462:1 21876:3 22145:1 24168:1 24441:3 26034:3 26921:5 27547:2 28730:1 28889:2 30625:1 30626:1 30627:1 30628:1 30629:1 31058:1 32239:1 32515:1 32900:1 34699:1 34700:1 34701:1 34702:1 34703:1 34704:1 34705:1 34706:1 34707:1 34708:1 38700:2 40563:1 40604:1 42040:1 43127:1 43902:2 44590:1 46632:1 52207:1 52208:1 52209:2 52210:1 52211:1 52212:1 52213:1 52214:1 52215:1 52216:1 52217:2 52218:1 52219:1 #
0.00042345395701219606552842544822113 1:1 3:1 6:4 16:3 17:2 19:9 20:1 25:4 42:3 51:2 61:1 63:2 65:1 75:2 81:1 99:1 103:1 110:1 111:1 120:3 121:1 124:1 131:1 132:2 134:1 148:1 153:1 156:1 162:1 241:2 263:1 271:1 272:3 295:2 351:1 378:2 398:1 404:1 470:1 483:2 520:1 601:1 612:1 613:1 635:4 680:1 686:1 821:1 888:1 923:1 1077:1 1391:1 1502:1 1505:1 1506:2 1509:1 1513:1 1544:1 1546:1 1563:1 1751:1 1853:1 1883:1 1971:1 2123:1 2235:1 2332:1 2377:1 2404:1 2626:1 2877:1 2975:1 3011:1 3292:1 4089:1 4645:1 5149:2 5280:1 5790:1 6702:1 7471:1 8362:1 8533:1 10465:1 10718:1 11409:1 13192:1 19278:1 #
0.00026289530469040698831828528625465 1:1 3:20 8:3 19:16 20:3 22:2 23:1 25:24 27:1 28:1 40:4 42:6 48:1 50:1 51:14 58:1 59:1 61:1 71:1 72:4 75:4 94:1 95:1 96:1 99:1 101:1 118:2 121:1 127:5 131:1 137:1 140:4 142:1 153:1 154:6 156:1 162:1 196:1 229:1 257:4 272:3 319:1 346:8 364:2 378:1 422:1 425:2 427:1 450:5 451:3 513:1 549:1 576:1 588:1 612:2 613:4 771:1 780:1 782:1 845:1 848:2 886:1 888:1 958:1 989:2 1064:1 1075:1 1276:1 1301:1 1384:1 1391:3 1397:1 1411:3 1478:1 1513:2 1516:2 1564:1 1575:1 1623:1 1749:1 1882:2 1883:2 1912:1 1932:1 2245:1 2454:1 2489:1 2522:3 2589:1 2648:2 2651:1 2907:1 3031:1 3043:1 3114:1 3163:1 3213:1 3214:1 3370:1 3372:1 3711:1 3817:1 3824:1 3917:1 3953:1 3964:1 4071:2 4148:1 4214:1 4238:2 4443:1 4828:2 5582:1 5946:11 5977:2 6017:1 6059:6 6420:4 6445:1 6707:1 6945:2 6946:2 6955:1 6958:1 6959:1 6960:1 6961:1 6962:1 7305:1 8846:2 9367:1 9554:4 9785:1 10371:1 10796:1 13419:1 16760:2 19461:1 21767:1 23976:1 26198:6 45468:3 45469:1 45470:1 45471:1 45472:1 #
0.00042345395701219606552842544822113 1:1 3:1 6:9 8:2 13:7 15:1 19:14 20:3 25:6 27:2 35:2 40:4 42:5 51:2 59:1 61:1 63:1 72:7 75:3 99:2 100:1 103:1 107:1 120:1 121:1 124:1 132:3 138:2 142:1 149:1 153:2 154:3 156:6 158:1 193:1 213:2 216:1 224:1 241:1 285:1 295:3 306:2 331:2 346:1 364:1 450:6 459:1 483:1 513:2 606:1 613:1 620:1 686:1 749:1 832:1 989:1 1269:1 1307:1 1312:1 1384:2 1391:1 1409:1 1416:2 1417:2 1472:2 1478:1 1506:1 1513:6 1521:1 1558:1 1563:1 1572:1 1651:1 1746:2 1751:1 1871:1 1881:2 1882:2 1883:2 1940:2 2562:1 2572:1 2619:2 2623:1 2861:1 2863:1 2866:1 3238:1 3488:1 3711:1 3807:2 4238:1 4651:1 5149:1 5222:2 5853:1 5970:1 6129:1 7020:1 7025:1 7207:2 9718:1 28450:2 37028:1 37029:1 #
0.00042345395701219606552842544822113 1:1 3:2 4:1 6:2 8:8 13:6 15:4 16:1 19:39 20:15 23:3 25:22 40:4 42:23 51:1 53:1 54:1 59:3 61:4 65:3 71:1 72:12 75:17 77:1 81:3 82:1 87:2 94:7 96:7 101:1 107:1 109:1 111:8 120:2 121:4 126:3 131:2 132:1 136:5 140:1 142:1 151:1 152:1 154:16 156:12 158:1 162:1 184:1 204:1 208:1 218:2 224:1 226:1 257:4 258:1 263:2 269:1 272:1 276:2 285:1 286:1 288:2 298:1 314:2 315:1 334:1 347:1 352:3 355:1 368:2 370:2 391:1 396:1 398:2 407:1 422:1 427:1 442:1 450:13 451:5 459:1 513:2 520:1 522:1 527:1 550:1 565:1 570:1 588:1 591:1 612:3 613:4 622:5 659:1 670:1 686:1 708:2 716:1 717:1 746:1 771:4 848:1 857:2 864:2 877:3 886:3 888:2 894:3 899:2 904:1 1075:2 1099:3 1120:2 1275:6 1287:1 1336:1 1383:1 1408:1 1460:1 1506:1 1513:12 1516:5 1530:6 1552:1 1560:1 1578:3 1612:1 1613:2 1634:1 1674:3 1689:8 1691:1 1698:2 1718:1 1751:3 1766:1 1778:1 1795:1 1882:1 1963:1 1965:1 1971:1 1974:15 2026:1 2031:1 2103:1 2221:1 2246:1 2252:1 2290:1 2332:7 2344:1 2349:2 2405:1 2424:1 2432:1 2495:1 2517:1 2518:1 2605:1 2648:3 2658:1 2687:3 2771:1 2800:1 2801:1 2831:1 2848:1 2897:1 2907:1 2926:2 2929:1 2976:1 2981:7 2997:1 3194:2 3213:1 3373:1 3390:1 3466:1 3685:3 3818:1 3904:1 3929:1 3976:2 3991:3 4092:4 4112:1 4151:7 4165:1 4446:1 4457:1 4595:1 4651:3 4685:1 4718:1 4866:2 5235:1 5280:14 5284:1 6026:2 6224:1 6231:1 6314:1 6431:1 6432:1 6486:2 6555:1 6567:2 7005:2 7796:1 8129:1 8781:1 8867:1 8903:1 9835:1 10405:1 11056:1 11160:1 11178:1 11399:1 12397:1 12907:1 12908:1 13294:1 13339:1 13780:3 14024:1 14099:1 14311:1 14739:4 17296:2 18214:1 18460:1 19631:1 20540:1 22605:1 24051:1 24052:18 24053:7 24054:1 24055:3 24056:6 24057:7 24058:1 24059:1 24060:1 24061:1 24062:1 24063:1 24064:1 24065:1 #
-0.00042345395701219606552842544822113 1:1 19:1 1336:1 3028:1 3519:1 #
0.00033865498777398389106813025861697 1:1 4:2 19:5 20:4 25:119 32:1 40:2 42:4 59:1 61:1 72:1 75:30 90:1 94:2 96:2 121:1 124:1 131:1 154:3 218:1 240:1 285:2 349:2 364:1 378:1 424:3 426:1 489:1 532:1 651:1 669:1 676:1 682:2 695:12 714:1 746:1 761:1 767:1 786:1 798:1 800:1 806:2 823:1 824:1 895:1 980:1 988:1 1064:9 1065:1 1147:1 1157:1 1173:1 1204:1 1207:2 1236:1 1307:1 1323:1 1342:1 1397:1 1399:1 1413:1 1431:1 1447:2 1478:1 1481:1 1578:2 1609:1 1641:1 1649:3 1701:2 1805:1 1817:1 1843:1 1914:1 1966:1 2033:2 2103:3 2172:1 2242:1 2337:1 2383:1 2392:1 2408:2 2434:1 2466:1 2517:1 2518:1 2524:1 2526:1 2557:3 2572:1 2626:1 2627:1 2947:1 3060:5 3061:1 3065:1 3074:1 3080:1 3106:1 3129:1 3190:1 3249:3 3286:1 3292:1 3325:1 3381:1 3474:1 3481:1 3516:2 3588:1 3634:1 3741:1 3778:2 3827:4 3920:1 3961:2 3993:1 4035:1 4054:1 4071:1 4078:2 4081:1 4136:2 4246:1 4529:1 4618:1 4678:1 4744:1 4862:2 5017:1 5019:1 5064:1 5068:1 5083:1 5178:1 5302:1 5311:1 5320:1 5332:1 5335:1 5395:1 5482:2 5506:1 5507:1 5623:1 5724:1 5726:1 5729:1 5899:1 6009:1 6152:1 6276:1 6342:1 6347:1 6348:1 6357:1 6391:1 6536:1 6560:1 6611:1 6619:1 6677:2 7050:1 7051:1 7190:1 7228:1 7276:1 7318:1 7339:1 7342:1 7368:1 7369:1 7384:1 7395:2 7955:1 7976:1 7981:1 8142:1 8456:1 8522:1 8694:1 8758:2 8768:1 9048:1 9120:1 9130:1 9131:1 9165:1 9298:1 9826:1 9992:1 11027:1 11040:1 11110:1 11186:1 11206:1 11704:1 12101:1 12269:1 12513:1 12519:1 12558:1 12562:1 12576:1 12597:1 12662:1 12666:1 13380:1 13841:5 14056:1 14555:1 14608:1 14960:1 15359:1 15713:1 15955:1 15958:1 15964:1 16005:1 16450:1 16451:1 16463:1 16582:1 16724:1 16725:1 16868:1 17274:1 19034:1 19160:1 19179:1 19338:1 19955:1 19959:1 20657:1 21211:1 21212:1 22084:1 22890:1 23103:1 23227:1 23740:1 23789:1 23846:1 25030:1 26305:1 26454:1 26993:1 28905:1 29001:1 30307:1 31147:1 31204:1 33624:1 34114:1 34680:1 37855:1 38246:1 40646:1 40716:1 43242:1 44020:1 44226:1 44319:1 44474:1 44475:1 44476:1 44477:1 44478:1 44479:1 44480:1 44481:1 44482:1 44483:1 44484:1 44485:1 44486:1 44487:1 44488:1 44489:1 44490:1 44491:1 44492:1 44493:1 44494:1 44495:1 44496:1 44497:1 44498:1 44499:1 44500:1 44501:1 44502:1 44503:1 44504:1 44505:1 44506:1 44507:1 44508:1 44509:1 44510:1 44511:1 44512:1 44513:1 44514:1 44515:1 #
0.00042345395701219606552842544822113 1:1 3:5 8:1 13:9 15:5 16:4 19:16 20:6 23:3 25:11 33:3 40:6 42:15 50:1 51:7 55:4 56:5 61:2 65:3 66:2 72:7 75:11 81:4 85:3 87:6 94:3 96:3 111:1 112:1 120:2 124:1 132:2 133:1 136:2 138:2 142:1 152:1 154:6 156:8 160:1 162:4 165:2 186:1 190:1 192:1 193:2 198:1 207:3 208:12 210:1 218:2 226:1 227:1 230:8 256:1 257:3 263:1 272:6 276:4 277:1 280:1 281:1 282:1 283:1 309:1 321:1 322:1 330:2 334:2 346:1 347:1 352:1 355:1 358:2 364:1 370:1 391:1 398:1 422:1 429:1 430:1 442:1 451:1 513:2 525:1 536:1 561:1 578:1 588:1 598:1 610:1 612:1 613:2 614:1 656:1 771:2 848:1 873:1 879:1 887:1 899:1 1022:1 1028:1 1077:1 1087:1 1164:1 1185:2 1290:1 1312:1 1318:1 1336:2 1365:1 1390:3 1391:2 1513:3 1527:1 1530:1 1592:1 1604:1 1606:1 1623:2 1643:1 1645:1 1669:2 1697:1 1701:1 1706:1 1795:1 1913:1 1937:2 1940:2 1966:1 1967:1 1971:2 2066:2 2219:1 2349:1 2373:1 2394:1 2531:1 2575:1 2579:1 2592:1 2649:1 2658:1 2670:1 2727:1 2750:2 2804:1 2888:1 2904:1 3215:1 3289:1 3370:1 3565:2 3655:1 3944:1 3991:1 4470:1 4477:1 4559:1 4667:4 4683:1 4718:1 4921:1 5218:1 5540:1 5557:1 5595:1 5871:1 5915:1 5976:42 6235:1 6307:1 6489:1 6746:1 6945:1 6948:3 7045:1 8151:1 8420:1 9338:1 9665:1 9814:1 10242:1 10557:1 10590:1 11380:1 12799:1 12852:1 12889:1 13142:1 13430:1 13603:1 14022:1 15603:1 15619:2 17030:1 17095:1 21098:1 23476:9 23477:1 27339:1 28559:1 29816:3 29944:1 30095:1 33079:1 36047:2 36048:1 36049:1 36050:1 36051:1 36052:1 36053:1 36054:1 36055:1 36056:1 36057:1 36058:1 #
0.00042345395701219606552842544822113 1:1 6:1 17:1 19:2 23:1 25:10 33:1 40:1 42:2 43:1 48:1 51:10 53:3 59:1 61:1 65:2 75:4 93:2 107:2 112:1 121:1 131:1 154:3 156:3 162:2 226:1 230:1 314:1 318:1 346:1 407:1 470:1 530:1 540:2 572:1 610:1 659:3 678:1 682:1 846:4 880:3 957:3 962:3 1005:1 1014:2 1275:21 1338:1 1425:6 1447:1 1471:2 1560:1 1590:1 2079:3 2176:3 2332:3 2524:3 2636:2 3014:2 3259:6 3522:3 3538:3 3884:1 4178:1 4229:3 6408:1 6723:1 6900:1 7954:2 8063:2 8973:3 11382:3 11482:1 11530:2 14622:9 15601:1 21879:6 29669:1 32103:2 36229:1 40455:1 40848:5 43587:2 53009:1 53010:1 53011:1 53012:1 53013:1 53014:1 #
-0.00042345395701219606552842544822113 1:1 8:2 12:6 13:4 16:1 17:1 19:3 23:2 25:2 40:2 58:1 59:3 61:1 72:1 75:2 82:1 87:1 107:2 121:1 126:2 132:1 140:1 154:1 258:1 276:2 287:1 290:1 342:1 440:1 459:1 513:1 864:4 877:1 962:1 1478:1 1513:1 1551:1 1734:1 1786:2 2371:1 2648:61 2877:3 3278:1 3370:2 3485:1 3506:1 3711:1 3764:1 3970:1 4655:1 5235:1 5464:2 13121:1 14256:1 20135:1 32931:1 42203:1 42849:1 55669:1 56968:1 68005:1 68006:1 68007:1 #
0.00042345395701219606552842544822113 1:1 13:1 19:2 20:2 25:3 51:2 61:1 107:1 118:1 263:1 470:1 513:1 525:2 1424:2 1506:1 1510:1 1511:1 1749:1 1896:1 1925:2 1929:1 3090:1 11985:2 39068:1 #
-0.00042345395701219606552842544822113 1:1 12:1 19:1 20:5 25:1 27:1 40:1 42:1 72:1 75:1 81:1 107:1 137:1 152:2 156:3 162:1 208:1 322:1 459:1 477:1 541:1 563:1 883:1 894:1 984:1 1367:2 1643:1 1646:1 2074:1 2406:1 2487:1 2585:1 2623:1 3014:1 3145:1 3236:1 3955:1 4624:1 5340:1 7511:1 8064:1 12939:1 16944:1 19243:1 32249:1 32378:1 47580:1 54515:1 56704:1 56711:1 56713:1 57205:1 57286:1 57379:1 57381:1 59475:1 70494:1 71466:1 74537:1 82669:1 84282:1 87353:1 90052:1 90053:1 90054:1 90055:1 90056:1 90057:1 90058:1 90059:1 90060:1 90061:1 #
0.00042345395701219606552842544822113 1:1 3:9 4:1 6:3 8:3 12:3 16:1 19:11 20:11 23:2 25:13 30:1 40:6 42:3 57:1 59:5 61:2 65:1 71:1 72:6 75:3 81:1 83:1 87:1 94:1 96:1 110:6 111:1 120:3 121:3 131:2 142:1 154:6 156:7 158:3 162:1 188:1 229:1 239:1 240:1 257:3 263:1 272:2 276:4 294:1 314:2 332:1 349:1 352:1 422:2 426:1 427:2 429:1 430:1 483:1 522:1 614:7 620:1 634:1 670:1 722:1 760:5 797:1 798:1 828:1 869:1 879:1 960:1 961:1 1037:1 1076:1 1078:1 1124:1 1353:1 1478:2 1495:1 1505:1 1506:1 1513:2 1527:1 1539:1 1544:1 1553:1 1598:1 1627:1 1676:1 1734:1 1749:1 1756:2 1778:1 1790:1 1882:1 1883:1 1913:1 1937:1 2031:1 2048:1 2054:1 2267:1 2329:1 2331:1 2346:1 2406:1 2565:1 2690:1 2719:1 3014:1 3163:1 3198:3 3307:1 3378:3 3380:1 3385:1 3388:1 3389:1 3407:1 3435:3 3488:1 3492:1 3570:1 3727:1 3919:1 3944:1 4036:1 4164:1 4447:1 4566:1 4862:1 5133:1 5242:1 5329:2 5594:1 5939:1 6067:1 6136:1 6574:1 6740:1 7093:1 9152:1 9290:1 9380:1 10298:3 10983:1 10993:1 11000:1 11001:1 11002:1 14865:1 15765:1 20334:1 22889:1 25147:1 27262:1 28343:1 31202:1 35957:4 35958:4 35959:2 35960:1 35961:1 35962:1 35963:1 35964:1 #
-0.0001445922311216466969382987706183 1:1 3:8 8:5 12:1 16:2 17:1 19:19 20:6 22:1 23:1 25:3 27:1 28:1 31:2 36:2 40:1 42:5 50:4 51:8 58:1 59:2 61:5 75:7 81:1 82:1 83:2 85:3 87:2 93:1 94:5 96:5 100:1 109:2 111:3 118:1 126:3 132:1 140:1 151:2 154:5 156:2 158:1 162:2 208:6 218:1 257:4 283:4 285:1 290:1 314:1 315:1 321:1 342:1 383:5 384:1 389:1 398:1 506:1 530:2 560:3 588:1 591:1 610:1 612:1 613:1 614:1 620:1 659:4 665:1 670:1 739:2 760:2 828:1 846:1 848:1 864:1 879:2 887:1 899:1 955:1 957:1 961:1 1087:1 1099:1 1240:2 1298:1 1328:1 1338:1 1365:1 1391:1 1408:1 1411:6 1478:1 1503:1 1516:3 1531:1 1537:1 1602:2 1612:1 1618:1 1631:3 1646:1 1723:1 1725:1 1734:1 1751:1 1833:1 1838:1 1860:1 1882:1 1883:1 1888:1 1892:1 1912:1 1977:1 1983:1 2171:1 2307:1 2332:1 2419:2 2524:2 2557:1 2651:1 2707:1 2724:1 2772:1 3043:1 3151:1 3162:1 3215:1 3219:1 3485:1 3504:1 3930:1 4498:1 4694:1 5270:1 5419:1 5425:2 5464:1 6141:3 6478:1 6670:1 6859:1 7005:1 7462:2 7688:1 7716:3 7928:1 9242:2 9391:1 9568:1 10099:1 10456:1 10826:1 13298:2 19810:1 20135:1 38442:1 53410:1 56420:1 61757:1 93749:1 93750:1 93751:1 93752:1 #
-0.00042345395701219606552842544822113 1:1 3:1 12:2 13:1 15:1 16:1 19:8 20:1 42:3 51:3 66:1 72:1 81:1 94:1 96:1 110:2 111:1 118:1 126:1 154:1 156:2 162:1 257:1 450:1 513:1 577:2 614:1 732:1 864:2 1276:1 1374:1 1391:1 1646:1 1833:2 2095:1 2508:1 2648:1 2928:1 2957:1 3425:1 3462:1 5199:1 6384:1 6507:1 7086:1 8131:1 20566:1 20938:1 28162:1 30029:1 44538:2 54616:2 55006:1 55007:1 55043:1 55738:1 56599:1 57051:1 59181:1 61747:1 65917:1 80081:1 96886:1 99065:1 99066:1 99067:1 #
0.00042345395701219606552842544822113 1:1 3:8 4:1 8:2 12:4 13:1 16:2 19:7 20:8 25:1 35:1 42:1 50:1 51:3 61:2 71:1 72:2 75:4 81:2 94:1 96:1 99:1 111:1 118:1 126:1 131:1 151:1 154:1 156:2 218:1 226:1 240:1 272:1 280:1 283:1 310:1 315:1 352:1 364:2 451:1 456:1 495:1 528:1 612:1 613:2 659:1 864:1 1022:1 1275:164 1276:5 1364:1 1391:1 1411:15 1480:1 1526:1 1548:1 1623:1 1643:1 1751:3 1881:1 1882:1 1883:1 1964:1 2759:1 2775:2 2877:3 3198:1 3268:16 3329:3 3373:1 3407:1 3521:1 3709:1 3944:1 4130:1 4443:1 4593:2 5212:1 6677:1 6949:4 7535:1 7596:1 8384:2 9185:1 9476:1 9640:1 14167:1 14873:1 25000:1 25881:1 25882:1 25883:1 25885:1 #
-0.00042345395701219606552842544822113 1:1 3:1 6:6 12:1 13:3 16:4 17:1 19:17 20:4 25:7 27:1 35:3 40:5 42:1 47:1 51:4 61:3 63:2 72:1 75:3 81:1 92:1 100:1 120:2 131:2 140:1 142:1 153:1 154:6 156:2 158:1 162:2 218:1 241:1 257:2 271:1 272:2 276:1 283:1 352:2 403:1 456:1 499:1 512:1 516:1 530:2 602:3 613:1 994:1 1219:1 1301:1 1356:1 1391:1 1504:1 1506:1 1513:4 1533:1 1563:2 1618:1 1623:1 1683:1 1722:1 1857:1 1882:1 1961:1 1966:1 2075:2 2095:1 2152:1 2346:1 2602:1 2909:1 2970:1 3031:1 3145:1 3292:1 3526:1 4052:1 4178:1 4205:1 4449:1 4642:1 4730:1 5030:1 5164:1 5166:1 5727:1 6073:1 7415:1 8234:1 8337:1 8414:1 8500:1 10377:1 10721:1 11134:1 11694:1 13110:1 13841:1 14069:1 14431:1 14535:1 15562:1 15814:1 16406:1 18279:1 27024:1 58086:1 89545:1 89546:1 89547:1 89548:1 89549:1 #
0.00035526955380513864594244077821372 1:1 3:18 4:1 6:2 13:1 15:1 16:3 19:22 20:707 23:3 25:53 27:2 33:5 34:1 35:6 36:3 40:1 42:8 50:11 51:33 56:1 59:1 61:3 66:3 72:2 75:8 81:1 87:3 94:1 96:1 101:4 111:5 120:2 124:1 131:2 132:3 140:1 151:2 154:4 156:6 158:1 162:7 178:1 207:2 208:1 218:1 236:1 239:1 240:4 265:1 276:2 282:1 285:1 305:1 309:1 318:1 342:1 352:1 354:4 370:1 399:2 402:1 407:1 416:1 450:1 472:18 483:2 525:8 530:14 542:4 592:1 602:2 614:2 615:1 635:1 652:1 659:2 686:1 716:1 797:1 798:1 888:1 897:1 961:2 962:1 976:1 996:2 1018:1 1021:18 1031:4 1033:1 1043:5 1053:1 1057:2 1060:2 1091:1 1276:7 1307:3 1425:4 1433:17 1437:10 1438:3 1442:1 1446:1 1447:1 1466:2 1474:1 1478:2 1480:1 1518:1 1545:1 1546:3 1559:3 1563:1 1578:1 1604:1 1617:3 1620:2 1643:1 1644:1 1688:1 1698:1 1775:1 1778:2 1787:1 1788:4 1805:2 1806:2 1863:2 1882:1 1883:1 1912:1 1913:1 1925:7 2246:1 2258:38 2291:1 2331:7 2404:1 2524:1 2569:1 2579:1 2633:2 2737:1 2760:1 2859:1 2916:2 2968:1 3076:2 3206:1 3265:2 3466:1 3733:3 3743:1 3764:1 3768:17 3787:1 3895:2 4246:3 4472:2 4565:1 4704:1 5043:1 5605:1 5891:1 5976:254 6250:1 6570:1 6809:2 6832:5 7258:1 7368:1 8155:6 8402:1 8660:1 8818:1 8900:1 9243:1 9734:1 10541:1 10711:1 10838:1 12948:1 13597:1 14317:1 16413:1 16815:1 17124:1 17227:1 17347:1 18890:1 19109:1 22977:1 25326:1 25821:1 32044:1 33948:1 34920:1 34923:2 34924:1 34925:1 34926:1 #
-0.00042345395701219606552842544822113 1:1 3:34 8:1 12:3 13:1 19:51 20:30 21:3 22:3 23:7 25:6 28:1 36:1 42:2 51:1 59:1 75:3 87:6 93:3 94:17 96:17 111:6 131:4 151:7 152:4 156:5 178:1 240:4 263:1 276:2 295:1 305:6 386:1 449:3 450:4 525:1 530:1 578:3 580:2 613:13 659:1 760:6 763:1 779:1 894:2 961:1 1021:6 1028:5 1053:1 1057:2 1060:5 1076:2 1078:2 1086:2 1275:2 1276:6 1283:4 1359:1 1420:1 1447:2 1490:2 1492:2 1513:1 1646:3 1696:1 1715:1 1781:3 1786:5 1790:1 1823:2 1877:1 1883:1 1933:5 1981:1 2626:2 2648:5 2649:1 2845:1 2864:3 2968:1 2981:1 3217:2 3281:1 3381:3 3538:2 3638:3 3701:1 3711:4 3725:3 3894:1 4092:1 4201:1 4483:4 4624:1 4659:1 5172:1 5274:1 5277:1 5742:3 5797:3 5801:1 5803:1 5812:1 5878:2 6135:1 6514:2 6536:1 7692:6 7723:6 7928:1 8683:2 8957:1 9304:1 9848:3 10139:1 10151:1 10152:1 10382:1 10745:1 10794:1 11351:2 11750:1 12142:1 12865:6 14525:2 16640:1 24528:1 30029:1 31673:2 36052:1 38470:1 40222:1 46793:3 47943:1 53977:1 54397:3 55843:3 58080:1 58523:2 60525:3 60526:6 60527:3 60528:3 60529:4 60530:2 60531:2 60532:1 60533:1 60534:1 60535:1 60536:1 60537:1 60538:3 60539:1 #
-0.00042345395701219606552842544822113 1:1 3:1 6:5 12:1 13:3 16:3 17:2 19:13 20:2 25:2 35:1 40:3 42:3 51:2 57:1 59:1 72:1 75:2 81:1 120:1 121:1 131:1 132:2 154:3 156:1 162:2 213:1 218:1 257:1 272:4 279:1 282:1 285:1 295:1 310:2 314:1 321:1 367:1 369:1 422:1 450:2 456:1 470:1 532:1 555:1 581:3 588:1 613:1 634:1 659:1 686:1 722:1 864:4 1040:1 1342:1 1363:1 1391:1 1509:1 1510:1 1511:1 1513:5 1533:1 1606:1 1612:1 1618:1 1627:1 1698:1 1722:1 1785:1 1790:1 1798:1 1879:1 2143:1 2314:1 2495:1 2556:1 2681:1 2909:1 3203:1 3265:1 3585:1 3617:1 3646:1 3688:1 3859:1 3877:1 4089:1 4163:1 4169:1 4205:1 4232:1 4449:1 5135:1 5641:2 5779:1 6016:1 6160:1 6181:2 6500:1 6987:1 7147:1 7201:1 8161:1 9031:1 9370:1 9518:1 9836:1 10285:1 12417:1 16890:1 17966:1 21100:1 22741:1 25789:1 26303:1 27595:1 28648:1 32475:1 34379:1 36133:1 55018:1 58086:2 77992:1 80158:1 80309:1 84546:1 89672:1 89673:1 89674:1 89675:1 89676:1 89677:1 89678:1 #
0.00042345395701219606552842544822113 1:1 3:3 6:1 13:1 16:1 19:32 20:1 22:1 25:6 29:1 33:1 35:1 40:1 42:1 61:1 72:1 81:1 93:1 107:1 109:1 111:6 129:1 149:1 151:5 152:3 154:2 156:1 162:2 240:8 272:1 285:2 293:1 391:1 423:1 425:1 515:1 530:1 659:4 832:1 864:1 875:1 961:1 1071:1 1111:1 1204:1 1207:1 1208:1 1352:2 1431:1 1517:1 1524:1 1563:1 1567:1 1578:1 1677:1 1725:3 1730:1 2111:1 2242:2 2507:2 2519:1 2659:1 3067:1 3182:3 3191:1 3198:2 3296:1 3381:1 3482:1 3516:1 3778:1 4022:1 4078:1 4205:1 4226:1 4593:1 5627:1 5794:1 5795:1 6007:1 6008:1 6069:1 6391:1 6392:1 6393:1 6394:1 6395:1 6983:1 7012:1 7135:2 7261:1 7695:1 7696:1 7708:1 7835:1 7836:1 8273:1 8302:1 8381:1 8475:1 8931:1 9149:1 9424:1 9985:1 11195:1 12705:1 12706:1 12707:1 12708:1 12957:1 12958:1 15221:1 16587:2 20097:1 22310:1 24076:2 26605:1 26606:1 51445:2 51446:1 51447:1 #
0.00042345395701219606552842544822113 1:1 6:1 8:1 15:1 19:5 20:4 40:1 42:2 61:1 63:1 72:1 75:1 82:1 101:1 104:1 120:1 151:1 156:1 160:2 162:1 196:1 218:2 237:1 257:1 283:1 290:1 315:1 322:1 346:1 352:2 353:1 354:1 407:1 461:1 481:1 483:1 525:1 592:1 625:1 651:1 682:1 734:1 818:1 911:2 972:1 1037:3 1076:1 1310:1 1425:23 1435:1 1478:1 1480:1 1513:1 1520:1 1521:1 1540:1 1546:1 1569:1 1620:1 1646:3 1759:1 1763:1 1774:1 1833:1 1918:1 2016:1 2134:1 2217:1 2246:1 2307:1 2320:1 2519:1 2541:1 2681:1 2866:1 3059:1 3917:2 5084:1 5959:1 7508:1 9665:1 9789:1 9919:1 11425:1 11745:1 12669:1 13678:1 13961:1 14495:1 16090:1 19047:1 19523:1 20636:2 21222:1 21237:1 27809:1 27948:1 29332:1 29817:1 36581:1 39908:1 39933:1 39964:1 39965:1 41860:1 41868:1 43089:1 50923:1 52033:1 52034:1 52035:1 52036:1 52037:1 52038:1 52039:1 52040:1 52041:1 52042:1 52043:1 52044:1 52045:1 52046:1 52047:1 52048:1 52049:1 52050:1 52051:1 52052:1 52053:1 52054:1 52055:2 52056:1 52057:1 52058:1 52059:2 52060:1 52061:2 52062:1 52063:1 52064:1 52065:1 52066:1 52067:1 52068:1 52069:1 52070:1 52071:1 52072:1 #
0.00042345395701219606552842544822113 1:1 3:1 8:1 13:1 19:7 25:2 51:2 65:2 111:1 132:1 257:1 272:1 483:1 612:1 613:2 883:1 1077:1 1275:1 1276:1 1391:1 1513:1 1563:1 1751:1 2877:3 3292:1 3711:1 5790:2 7668:1 10718:1 21850:1 35400:1 35401:1 #
0.00042345395701219606552842544822113 1:1 3:3 8:1 16:1 19:8 20:3 23:2 25:7 27:14 40:2 50:3 72:1 75:2 81:1 94:3 96:3 110:14 112:1 151:2 152:4 180:1 234:3 240:1 285:1 304:1 305:1 322:2 366:1 530:2 538:1 942:3 961:2 1028:1 1425:1 1765:1 1911:3 1958:2 2185:1 2646:2 2648:1 2705:1 2737:3 2761:1 2814:4 4014:1 4040:2 4564:2 4691:2 5473:1 5564:1 10030:1 10438:1 10544:1 10965:1 12294:1 13443:1 14436:3 15856:1 17265:1 17269:1 20138:1 20494:1 20719:2 21022:1 24519:1 29504:1 33875:1 #
0.00042345395701219606552842544822113 1:1 3:1 6:1 8:1 10:1 14:2 16:3 17:1 19:7 20:19 25:10 40:4 42:6 61:5 63:2 65:1 72:2 75:4 81:1 94:2 96:2 120:2 124:3 126:1 131:1 132:1 136:1 138:4 140:7 154:9 156:8 158:1 206:1 215:1 229:1 240:1 251:1 259:1 272:2 276:2 279:1 285:4 290:1 314:2 338:1 352:1 355:1 358:2 371:1 378:1 391:1 404:1 407:1 422:1 450:1 459:1 481:1 483:3 513:3 516:1 532:1 588:3 613:1 886:1 1276:1 1307:1 1333:1 1417:3 1428:1 1511:1 1533:1 1563:1 1588:1 1608:1 1618:1 1643:2 1676:1 1698:1 1795:1 1839:1 1862:1 1922:1 1966:4 2016:1 2098:1 2143:1 2236:1 2328:1 2423:1 2429:2 2434:1 2450:1 2523:1 2622:1 2646:1 2989:1 3011:1 3146:1 3294:1 3383:1 3396:2 3426:1 3435:1 3452:4 3493:1 3559:1 3653:2 3962:3 3964:1 4119:1 4130:1 4626:2 4815:1 4862:1 5349:1 5622:1 5734:1 6077:1 6210:1 6810:1 7668:1 7771:1 7796:1 7818:1 8113:1 8316:2 8463:1 8940:1 9254:1 10122:1 10559:1 10723:4 14350:1 14401:1 16303:4 17896:1 20334:1 23819:1 27897:1 29644:2 30592:1 37159:1 37820:1 43866:1 48459:1 51572:1 51573:1 #
0.00042345395701219606552842544822113 1:1 2:1 3:3 6:2 8:2 9:1 11:1 12:6 13:4 15:1 16:12 17:4 19:37 20:8 23:1 25:21 33:2 39:9 40:7 42:22 59:1 60:2 63:2 72:21 75:9 81:7 104:2 107:2 120:8 121:2 124:1 131:2 132:1 138:1 140:1 151:1 153:1 154:5 156:16 162:3 208:3 218:2 229:1 236:1 257:10 263:2 272:8 276:6 277:1 278:2 283:3 285:1 290:1 295:2 314:1 315:2 321:1 365:1 404:1 422:2 428:2 441:1 450:4 459:1 481:1 483:1 490:1 513:3 525:1 530:1 551:1 561:1 579:2 584:1 592:3 598:1 599:1 602:8 620:2 635:9 649:1 655:1 659:1 670:2 682:1 686:3 713:1 724:14 783:1 832:1 852:1 853:1 858:1 873:12 874:1 886:1 894:1 897:1 898:2 952:2 962:1 972:1 996:1 1010:1 1028:1 1066:1 1087:1 1307:1 1411:15 1478:1 1503:2 1510:1 1511:4 1513:1 1533:2 1537:1 1563:3 1612:3 1618:2 1620:2 1634:1 1637:1 1734:1 1740:1 1750:1 1765:2 1781:1 1827:1 1879:1 1881:1 1917:1 1939:1 1953:1 1966:2 1973:1 2048:1 2130:1 2220:2 2236:1 2267:1 2320:1 2370:1 2426:3 2580:1 2602:1 2611:1 2619:1 2622:1 2680:1 2740:1 2751:2 3004:1 3028:1 3268:10 3292:1 3352:1 3398:2 3399:1 3593:1 3664:2 3792:4 3882:1 3915:1 3916:1 3964:1 3970:1 4164:1 4270:1 4478:1 4712:1 4815:1 5105:10 5116:1 5360:1 5419:1 5453:1 5611:1 5639:1 5686:1 5719:3 5734:1 6016:1 6158:1 6193:1 6384:1 6501:1 6607:1 6830:1 6865:1 7199:1 7471:3 7637:1 7921:1 8055:1 8515:1 8543:1 8742:1 8752:1 8799:1 9688:1 9836:1 9856:1 9882:1 9919:1 9974:1 10723:4 11851:3 12318:1 12365:1 13088:1 13265:1 14780:1 14872:6 15351:1 16656:1 20259:1 20324:1 21314:1 21764:1 22331:1 23652:1 23938:1 24929:1 27486:1 27867:1 30540:1 32770:1 35024:1 35421:1 39267:1 39268:1 39269:1 39270:2 39271:1 39272:1 39273:1 39274:1 39275:1 39276:1 39277:1 39278:1 39279:1 39280:1 #
0.00042345395701219606552842544822113 1:1 3:2 8:5 12:4 13:13 14:2 15:2 16:7 19:20 20:19 22:1 23:3 25:18 36:1 40:3 42:3 47:2 48:1 58:1 61:3 65:2 72:5 75:12 81:3 87:1 92:1 94:4 96:4 101:3 107:1 110:2 118:1 120:2 126:1 131:2 132:1 136:1 140:1 154:10 156:6 158:1 162:1 207:1 218:1 240:1 257:5 272:2 276:2 285:1 290:1 314:1 315:1 316:1 337:1 352:1 404:1 408:1 439:1 451:2 452:1 453:1 459:1 483:3 513:1 522:1 571:1 670:1 716:1 733:3 740:1 786:2 864:1 880:1 886:1 888:2 898:1 950:2 952:1 957:1 1028:1 1301:1 1333:1 1381:2 1408:2 1423:2 1478:1 1513:5 1589:1 1636:1 1746:1 1751:3 1836:1 1881:1 1882:13 1883:4 1940:1 2059:2 2122:2 2143:1 2349:2 2397:1 2418:2 2424:1 2457:1 2572:1 2593:1 2596:1 2599:1 2627:1 2730:2 2775:1 2907:1 2960:1 3014:1 3145:1 3281:1 3329:1 3359:1 3370:1 3372:1 3455:2 3709:2 3717:1 3751:5 3955:4 4592:1 5149:1 5221:1 5231:1 5419:1 5446:1 5471:1 5479:1 5784:1 5992:1 6187:1 6192:1 6945:1 7008:1 7684:1 8425:1 8443:1 8463:4 9034:2 9301:1 9702:1 9754:2 10077:4 10180:1 10611:1 10789:1 10818:2 11865:1 12055:1 14167:1 14359:11 14932:2 24593:5 24594:2 24595:2 24596:1 #
0.00042345395701219606552842544822113 1:1 3:5 4:1 8:3 12:1 13:4 14:1 16:1 19:25 20:11 22:3 23:1 25:12 40:2 42:4 51:9 61:4 72:5 75:7 76:7 107:3 109:1 121:2 126:1 131:3 132:7 140:1 154:9 156:5 162:1 226:1 257:2 269:1 272:2 277:1 282:1 283:2 285:3 314:2 315:1 370:1 416:1 450:1 459:3 506:1 532:2 538:1 555:3 558:1 576:1 612:2 613:3 670:1 682:1 686:1 739:1 740:1 848:3 864:4 895:1 952:1 1021:1 1050:1 1207:1 1269:1 1276:1 1301:1 1407:1 1408:1 1411:2 1414:2 1423:1 1449:1 1478:1 1480:1 1503:1 1513:11 1516:3 1520:1 1526:1 1527:1 1539:1 1552:1 1557:1 1560:2 1597:1 1612:1 1623:2 1643:1 1673:1 1687:1 1735:2 1751:2 1795:1 1853:2 1907:1 1921:1 1933:2 1967:1 1992:8 2138:1 2250:1 2405:3 2522:6 2572:1 2596:1 2681:1 2877:4 3219:1 3247:1 3370:3 3373:1 3539:1 3551:1 3650:1 3711:4 3743:2 3768:1 3919:1 3953:2 3955:1 4132:1 4151:2 4178:1 4508:1 4549:1 4559:2 4651:2 4694:1 5155:1 5218:1 5236:1 5242:1 5651:1 5742:1 6187:2 6224:1 6430:1 6471:1 6743:1 6932:1 6990:2 6991:2 6992:2 6993:2 6994:2 6995:2 6996:1 6997:1 6998:1 6999:1 7000:1 7001:2 7002:1 7003:1 7004:1 7005:1 7006:1 7007:1 7008:2 7009:1 #
0.00042345395701219606552842544822113 1:1 3:6 6:1 8:1 12:1 16:4 19:3 20:10 21:1 22:1 23:1 25:5 28:1 32:1 36:1 40:1 42:3 45:2 46:1 47:1 61:1 63:1 65:1 72:3 75:3 81:3 107:1 126:3 132:2 140:2 149:1 154:2 156:1 162:1 178:1 193:1 257:1 259:3 271:1 272:1 283:1 285:1 290:1 305:1 311:1 352:1 357:1 391:1 450:1 499:2 522:1 635:1 677:1 755:1 760:1 894:1 1028:1 1423:1 1494:1 1502:1 1735:3 1879:1 1953:1 1989:1 2016:1 2098:1 2267:1 2290:1 2478:1 2751:1 3145:1 3466:1 3647:1 4112:1 4603:1 4610:2 4679:5 5582:1 5780:1 5931:1 6871:1 7134:2 7896:1 8970:1 9600:1 9702:1 11990:1 13790:1 18300:1 26726:1 26727:1 26728:1 26729:1 26730:1 #
-0.00042345395701219606552842544822113 1:1 15:1 16:1 17:1 19:9 33:1 42:1 156:1 221:1 232:1 257:1 315:1 490:1 513:1 565:1 724:1 1166:1 1513:1 1532:1 1612:1 1735:1 2338:1 3426:1 8661:1 9984:1 12282:1 12466:1 13633:1 14643:1 14872:1 16189:1 16774:1 18665:1 27509:1 31309:1 43146:1 44991:1 50328:1 55321:1 57794:1 58839:1 59514:1 60015:1 62027:1 63269:1 63446:1 72656:1 84886:1 84887:1 84888:1 84889:1 84890:1 84891:1 84892:1 #
0.00042345395701219606552842544822113 1:1 19:1 25:2 42:2 61:1 132:1 281:1 1314:1 1478:1 1567:1 1781:1 1898:1 2823:1 3593:1 6547:1 #
-0.00042345395701219606552842544822113 1:1 3:2 6:12 8:1 13:17 14:1 15:4 16:3 19:24 20:4 22:1 25:2 27:2 35:1 36:2 40:5 41:3 42:6 47:3 51:9 58:1 61:5 72:5 75:14 81:3 85:1 87:2 100:1 107:2 111:2 118:1 120:1 121:4 124:2 126:1 131:3 140:2 154:9 156:7 162:2 193:2 206:1 207:1 208:2 218:1 226:1 257:1 272:1 276:10 277:1 281:1 283:1 315:1 318:3 321:1 334:1 387:1 405:1 422:2 450:1 483:2 496:2 513:3 528:1 542:1 565:1 580:1 613:2 620:1 680:1 716:1 737:2 760:1 775:1 783:1 786:1 887:2 888:2 894:2 898:1 957:3 1269:1 1275:5 1276:2 1367:1 1393:2 1478:2 1506:5 1510:1 1513:3 1539:1 1544:2 1552:3 1553:1 1563:3 1586:3 1669:1 1683:1 1698:1 1732:1 1833:1 1838:1 1853:1 1881:2 1922:1 1966:3 1974:2 1983:1 2033:1 2050:1 2145:1 2151:1 2214:1 2221:1 2417:1 2426:2 2501:1 2626:1 2648:37 2707:1 2877:3 2946:1 2955:1 2981:2 3280:1 3281:1 3326:1 3704:1 3717:1 3786:1 4137:1 4226:1 4470:1 5236:3 5727:1 6185:1 6384:2 6874:3 6945:1 7303:2 8055:1 8851:1 9181:1 10399:1 10812:1 11663:1 13435:1 15322:1 16117:1 17738:1 18087:1 21699:1 24489:1 24894:2 27622:6 31852:1 31854:1 37851:1 43051:1 55837:1 55838:1 55839:1 95700:1 95701:2 #
0.00042345395701219606552842544822113 1:1 8:1 12:2 19:5 20:3 23:1 25:1 40:2 42:1 47:1 56:2 57:1 59:1 72:1 75:6 94:1 96:1 103:2 120:1 121:1 148:1 154:3 156:1 218:1 257:1 272:1 276:2 282:1 285:1 315:1 399:1 404:2 422:1 427:1 570:1 864:1 869:1 1424:1 1425:1 1646:1 1688:1 1812:1 1852:3 1971:3 2127:1 2267:1 2812:1 3011:2 3538:1 4078:1 5355:1 6500:1 6514:1 6988:1 7494:1 9679:1 10078:1 10079:2 10080:2 #
-0.00042345395701219606552842544822113 1:1 12:2 13:2 16:2 19:7 25:2 40:1 41:2 42:1 60:1 61:2 71:1 72:2 75:3 81:1 87:1 100:2 107:1 121:1 131:1 132:1 154:2 156:4 162:1 218:1 282:1 283:1 285:4 290:1 416:1 422:1 450:1 486:1 570:2 678:1 682:1 864:1 879:1 886:1 1275:108 1390:1 1445:1 1513:4 1552:1 1613:2 1622:1 1651:1 1746:1 1968:1 2356:1 2508:1 2557:1 2606:2 2775:1 3145:1 3183:1 3192:1 3416:1 4136:1 4143:1 6036:1 6459:2 7149:1 7637:1 9417:1 38846:1 55642:1 55646:1 58757:1 58758:1 58761:1 58762:1 60133:1 60135:1 #
-0.00042345395701219606552842544822113 1:1 3:1 6:4 8:2 12:1 13:2 15:1 16:5 17:1 19:9 20:5 23:1 25:7 27:2 40:2 42:4 47:1 50:1 59:1 61:2 72:2 75:8 81:2 87:1 94:1 96:1 110:1 118:1 120:2 121:2 124:3 131:1 132:2 154:5 156:12 158:4 162:2 218:1 240:1 257:1 258:1 272:1 314:1 315:1 352:1 358:2 382:1 452:1 459:1 464:1 513:2 555:1 568:1 634:1 665:2 670:2 680:1 714:1 798:1 818:1 825:1 832:1 850:1 1050:1 1296:1 1328:1 1329:2 1508:1 1520:1 1618:1 1643:1 1688:1 1735:1 1743:1 1746:1 1983:2 2169:1 2273:1 2307:1 2365:1 2371:1 2372:1 2373:1 2652:1 2775:1 2859:1 2949:1 3028:1 3162:1 3326:1 3358:1 3397:1 3743:1 3786:2 3915:1 4099:1 4170:2 4229:1 4508:1 4580:1 4694:2 5105:1 6430:1 7399:1 7423:1 8106:1 8671:1 9368:1 9657:1 9702:1 10818:2 11071:1 11089:1 11200:1 11363:1 13766:1 14003:2 14167:1 17624:1 18306:1 24211:1 25290:1 27346:1 31733:1 31742:1 39355:1 56599:1 63344:1 73450:1 79560:1 85793:1 87093:1 87094:1 87095:1 87096:1 87097:1 87098:1 87099:1 87100:1 #
-0.00042345395701219606552842544822113 1:1 3:1 8:1 13:10 14:3 16:8 17:1 19:15 20:1 25:3 39:2 42:1 51:3 59:4 61:3 63:1 72:1 75:12 81:3 87:2 107:1 120:8 131:1 132:3 154:5 156:2 162:1 207:2 215:1 218:3 240:1 257:1 272:4 279:1 283:2 285:5 290:1 307:1 314:2 315:1 407:1 427:1 441:1 459:1 483:2 513:2 565:2 570:1 612:1 613:1 680:2 682:2 686:1 737:3 864:1 886:2 887:5 897:1 1342:1 1391:1 1423:1 1478:1 1508:1 1511:2 1533:1 1539:1 1557:1 1612:1 1618:1 1747:2 1795:2 1816:1 1920:1 1938:1 1953:1 2258:1 2321:1 2566:1 2579:1 2611:2 2681:1 3145:4 3281:1 3292:1 3379:1 3593:1 3768:1 3955:1 3969:1 4089:1 4448:1 4586:1 4605:1 5352:2 5572:1 5841:1 5904:1 5976:1 6384:1 6412:1 7679:1 7912:1 8752:1 8851:1 9640:1 11162:1 12298:1 14203:1 23736:1 24755:1 27329:1 27649:1 28303:1 35604:1 37628:1 58485:1 77846:1 81775:1 81776:1 81777:1 81778:1 81779:1 81780:1 81781:1 81782:1 81783:1 81784:1 #
0.00042345395701219606552842544822113 1:1 3:1 6:7 8:6 12:2 13:13 14:1 15:1 16:7 17:2 19:60 20:4 23:1 25:26 35:1 36:1 37:1 40:3 42:15 45:1 56:5 59:5 61:4 63:1 72:10 75:20 81:2 94:2 96:1 107:2 111:2 120:4 124:3 126:2 131:3 132:2 138:1 140:1 142:1 148:2 154:7 156:10 158:2 162:1 207:4 213:1 218:2 229:3 251:1 252:1 257:6 258:1 263:1 269:1 271:1 272:3 276:4 278:2 283:3 285:7 290:1 295:1 297:1 310:2 314:1 321:1 331:1 334:1 351:3 352:5 354:1 368:1 369:1 378:1 404:1 407:4 416:2 422:1 438:1 442:1 450:7 456:2 459:1 470:3 483:1 581:1 600:1 677:2 680:3 682:2 686:3 708:1 716:1 721:1 746:3 749:1 780:1 821:1 843:7 852:1 864:2 880:1 886:4 887:1 888:2 897:1 1129:1 1206:1 1260:1 1292:1 1314:1 1328:1 1413:1 1499:1 1500:2 1505:1 1506:3 1509:1 1511:1 1513:2 1520:1 1532:2 1533:1 1537:2 1539:2 1553:1 1563:3 1593:1 1609:1 1612:1 1613:1 1616:2 1620:2 1648:1 1651:1 1734:1 1749:1 1751:1 1759:1 1785:3 1796:1 1912:2 1913:2 1938:1 1966:2 1968:1 2031:1 2083:3 2214:1 2245:2 2246:2 2301:1 2344:1 2374:1 2380:1 2404:1 2535:1 2565:1 2579:1 2597:1 2612:1 2618:1 2621:1 2654:1 2708:1 2835:1 2848:1 2859:1 2966:1 3146:1 3154:1 3163:1 3180:1 3326:1 3394:1 3398:1 3615:1 3621:1 3882:1 3942:1 3944:1 3955:1 3964:1 3986:1 4037:1 4090:1 4092:1 4112:2 4458:1 4629:1 4699:2 4815:2 5163:1 5239:1 5355:2 5364:1 5506:2 5507:1 5761:1 5768:1 5841:1 5988:1 6047:1 6179:1 6204:1 6429:1 6586:1 6722:1 6868:1 7682:1 8061:1 8089:1 8134:1 8420:1 8519:1 9222:1 9242:3 9309:1 9468:1 10624:1 11920:2 12275:2 12678:1 13174:1 13391:1 14844:1 15495:1 16592:1 22595:1 22596:1 22597:1 22598:1 22599:2 22600:1 22601:1 22602:1 22603:1 #
0.00042345395701219606552842544822113 1:1 3:9 8:2 12:5 13:4 15:1 16:4 17:1 19:11 20:3 25:10 27:2 29:1 33:1 40:8 41:1 42:4 48:1 51:5 52:1 54:1 56:1 59:1 61:1 71:1 72:1 75:5 81:3 87:1 94:2 96:2 99:1 100:2 110:2 120:1 121:1 131:1 132:4 140:3 149:1 152:1 154:6 156:2 158:1 162:1 207:1 218:1 253:1 257:1 272:3 310:1 314:1 318:1 329:1 354:1 398:1 416:1 422:1 426:1 489:1 522:1 530:1 555:1 587:1 614:2 615:2 677:1 680:1 681:2 689:2 740:1 760:1 787:1 898:1 929:1 957:4 1050:2 1137:2 1275:204 1417:1 1425:1 1513:3 1516:1 1539:1 1618:1 1781:1 1795:1 1853:2 1883:1 1968:1 2062:1 2159:1 2196:2 2393:1 2424:1 2569:2 2596:1 2681:1 2732:1 2769:1 2801:1 2831:1 2852:1 3249:1 3259:1 3265:1 3336:1 3354:1 3355:1 3358:1 3396:1 3409:1 3426:1 3432:1 3435:1 3784:1 3970:1 4630:1 4694:2 5119:2 5193:2 5212:1 5250:1 5350:1 5768:1 6226:1 6430:3 6531:1 7153:2 7154:1 7155:1 7157:4 7158:4 8748:1 9617:1 9686:1 10034:1 10518:3 10519:1 10818:1 10985:1 19475:1 21106:1 22662:1 22804:1 22805:1 22806:1 22807:1 22855:1 22856:1 22857:1 22858:1 22859:1 #
0.00042345395701219606552842544822113 1:1 3:1 4:2 8:1 16:2 19:6 25:6 40:5 42:2 61:1 75:1 81:2 151:1 154:2 162:1 175:1 252:1 272:1 276:2 314:1 422:1 442:1 450:1 451:1 463:1 483:1 584:1 588:1 613:1 728:1 821:1 938:2 1040:1 1193:1 1325:1 1683:1 1795:1 1931:1 2673:2 3370:2 3571:1 3909:1 4544:1 5847:1 7508:1 9541:1 10980:1 17736:4 19253:1 37175:1 #
0.00042345395701219606552842544822113 1:1 3:3 6:1 8:2 12:1 13:1 19:8 25:3 27:2 42:3 50:2 51:1 75:2 99:1 107:1 132:1 152:1 154:1 156:1 210:1 257:1 280:1 670:1 678:1 681:1 887:1 888:1 1386:1 1424:1 1425:3 1478:1 1493:1 1506:1 1510:1 1511:1 1643:2 1646:2 1759:2 1908:1 1971:1 2056:1 2196:1 2207:1 2267:1 2963:1 3030:1 3076:1 3569:1 3925:2 4023:1 5486:1 6020:1 8410:2 8412:2 10421:2 12147:1 15142:1 15143:1 15144:1 16221:1 #
-0.00042345395701219606552842544822113 1:1 3:12 8:10 12:5 16:5 19:24 20:10 23:3 25:17 36:1 40:14 42:32 44:1 47:2 48:1 50:1 51:2 58:4 59:8 61:6 66:1 72:17 75:17 81:4 85:1 87:4 94:4 96:4 100:2 101:1 107:2 110:8 111:1 113:1 118:1 120:8 121:2 127:3 131:6 136:1 138:1 140:9 149:1 154:11 156:8 160:2 162:5 192:1 206:1 207:1 208:1 218:7 224:1 229:1 236:1 240:1 251:1 257:6 263:1 272:1 274:1 276:10 280:1 281:1 283:4 284:1 285:3 295:1 314:1 334:2 339:1 340:1 347:8 349:1 350:1 351:2 352:7 357:1 378:2 383:1 398:1 399:3 402:1 404:1 422:6 439:1 448:1 452:1 470:1 472:1 513:2 517:2 549:1 555:1 558:1 571:1 576:2 583:1 599:2 600:2 610:1 620:1 624:1 641:1 670:1 682:4 686:1 732:2 739:1 777:4 781:2 848:2 889:3 894:1 971:1 989:2 1028:1 1040:1 1077:1 1078:1 1099:1 1137:1 1148:2 1305:1 1342:1 1354:1 1472:3 1513:1 1516:4 1530:2 1586:1 1598:1 1605:1 1622:1 1647:1 1651:1 1681:2 1691:1 1781:1 1789:1 1795:1 1827:1 1836:1 1913:1 2019:5 2023:5 2028:1 2050:1 2069:1 2070:1 2143:2 2171:1 2172:1 2185:1 2191:1 2221:1 2249:2 2255:1 2278:1 2311:2 2323:1 2346:1 2412:1 2416:1 2426:2 2427:1 2454:1 2456:1 2457:1 2461:1 2475:1 2535:1 2549:1 2589:1 2611:1 2686:1 2707:1 2719:1 2731:1 2740:1 2772:1 2775:1 2831:2 2873:1 2891:2 2929:2 2949:1 2962:1 2965:1 3010:1 3059:2 3180:1 3190:4 3328:2 3329:1 3379:1 3504:1 3563:1 3669:4 3751:1 3788:1 3906:1 3912:1 3917:6 3929:1 3953:2 3981:3 4092:1 4178:1 4570:2 4580:2 4609:1 4807:3 4841:1 4885:1 4930:1 5121:1 5148:1 5155:1 5210:1 5296:1 5404:1 5651:1 5677:1 5748:1 6015:3 6016:1 6047:2 6090:1 6172:1 6214:1 6404:1 6474:1 6476:1 6521:2 6743:4 6811:2 6864:1 6949:1 7035:1 7062:1 7094:1 7140:1 7562:1 7576:1 7628:2 7772:2 7994:1 8119:1 8133:1 8215:1 8406:1 8420:1 9118:2 9185:1 9202:1 9321:1 9334:1 9376:1 9484:1 9548:1 9573:1 9623:1 9688:1 9975:1 10234:1 10277:1 10413:1 10540:1 11355:2 11948:1 12287:2 12390:1 12404:1 13068:1 13084:1 13103:1 13377:1 13833:1 13891:1 16090:1 17397:1 17687:2 19582:1 19735:1 20569:2 21742:2 21970:1 22523:1 22569:1 23642:1 23934:1 26381:1 26443:1 28308:1 32965:2 34023:1 36118:1 42392:1 48395:6 56614:2 61284:9 68035:1 69345:2 69346:1 69347:1 #
-0.00042345395701219606552842544822113 1:1 3:6 8:2 13:1 16:1 19:1 22:1 23:6 25:7 36:1 51:4 61:1 75:1 94:1 96:1 99:3 110:5 126:1 137:1 216:1 232:1 253:1 282:1 285:1 314:2 315:2 337:1 398:1 536:1 555:1 898:1 1050:1 1148:1 1367:1 1382:1 1478:1 1503:1 1604:1 1646:2 2185:1 2320:1 2670:4 2897:1 3196:1 3358:1 3489:1 4330:1 6734:1 7139:1 21478:1 22157:1 34320:1 35032:1 36408:2 47676:1 49199:1 54193:1 55119:1 55122:2 55123:1 55124:1 55125:2 55126:1 55127:1 55128:1 55130:1 55131:1 55187:1 56443:1 56444:1 59553:1 62050:1 63770:1 65770:1 65771:1 65772:1 65773:1 65774:1 65775:1 65776:1 65777:1 65778:1 65779:1 65780:1 #
-0.00042345395701219606552842544822113 1:1 3:8 8:3 12:1 13:2 14:1 16:6 17:1 19:27 20:6 23:1 25:25 35:1 40:9 41:3 42:17 50:1 59:2 61:6 62:1 63:1 65:1 71:1 72:12 75:13 81:4 83:1 85:1 87:1 94:6 96:6 103:1 107:1 110:5 111:4 120:6 123:1 124:1 126:1 131:5 132:4 134:1 138:2 144:1 152:2 154:13 156:13 162:7 207:2 208:4 215:1 218:1 226:1 241:1 251:1 257:7 261:1 263:1 271:1 272:6 276:4 282:1 285:6 287:1 295:1 314:2 337:2 342:1 348:1 349:3 352:4 364:1 367:1 402:1 407:1 422:1 427:1 442:1 450:1 470:1 512:1 513:1 528:1 532:1 536:1 542:1 549:2 568:2 572:1 614:1 620:1 676:1 677:4 682:1 686:1 708:1 729:2 732:1 746:1 774:1 781:1 852:1 864:4 871:1 872:1 879:2 886:1 887:1 888:1 894:3 905:1 910:1 952:1 961:1 988:2 1022:2 1028:2 1046:11 1052:1 1148:3 1290:1 1303:1 1321:1 1374:1 1423:1 1442:2 1450:1 1477:1 1493:1 1503:1 1508:1 1513:1 1550:3 1558:1 1574:1 1578:1 1620:1 1633:1 1643:1 1648:1 1696:1 1707:1 1730:1 1748:1 1754:1 1767:1 1795:1 1879:1 1939:1 1958:1 1968:1 1988:1 2025:1 2074:4 2138:1 2146:1 2236:1 2248:1 2264:1 2267:1 2315:1 2508:1 2517:1 2518:1 2574:1 2686:1 2716:1 2739:2 2771:2 2777:1 2957:1 2965:1 2973:1 3017:4 3058:1 3180:1 3198:1 3235:1 3296:1 3369:1 3391:1 3396:1 3435:1 3514:1 3646:2 3839:1 3854:1 3890:1 3899:1 3920:1 3971:1 4060:1 4073:2 4078:1 4120:1 4136:1 4149:1 4150:1 4152:2 4191:1 4646:1 4799:1 4813:1 4841:1 4877:1 5270:2 5376:1 5383:1 5418:1 5736:1 6128:1 6163:1 6387:1 6396:1 6459:1 6583:1 6587:1 6607:1 6859:1 7098:1 7195:1 7576:1 7583:1 7916:1 7997:1 8699:1 8799:1 8823:1 8861:1 8928:1 8936:1 9185:2 9484:2 9495:1 10115:1 10189:2 10231:1 10265:1 10297:1 10665:1 10666:1 11271:1 12198:1 12828:1 12865:1 13066:1 13263:1 13311:2 13332:2 13540:1 13695:1 13770:3 13904:1 14228:1 14473:1 14535:1 14872:1 15197:1 15223:1 15582:1 15985:1 17694:1 17845:1 18113:1 21630:1 21681:6 21689:1 21704:1 22509:1 22541:2 22777:1 24208:1 24264:1 26279:1 30637:1 30797:1 30933:1 31676:1 32970:1 33501:1 34126:1 34682:1 35520:1 36158:1 36256:1 36559:1 37003:1 38298:1 38369:1 39382:1 41700:1 41964:1 42044:1 42693:1 43650:1 43796:1 44003:1 44512:1 45044:1 46022:1 47689:1 48346:1 48780:1 49194:1 49368:1 49799:1 50312:1 51838:1 52228:1 54519:1 55104:1 55390:1 56504:11 57584:1 58172:1 58176:1 58743:1 58844:1 59862:1 60621:1 61152:1 62064:1 63612:1 63697:1 63711:1 63781:1 63811:1 71119:1 74799:1 78185:1 78222:1 78333:1 78628:1 80099:1 81164:6 81919:1 82085:1 82184:1 85530:1 86776:1 88417:1 89103:1 90072:1 90073:5 90074:1 90075:1 90076:1 90077:1 90078:9 90079:1 90080:1 90081:1 90082:1 90083:1 90084:1 90085:1 90086:1 90087:1 90088:1 90089:1 90090:1 90091:1 90092:1 90093:2 90094:1 90095:1 90096:1 90097:1 90098:1 90099:1 90100:1 90101:1 90102:1 90103:1 90104:1 90105:1 90106:1 90107:1 90108:1 90109:1 90110:1 90111:1 90112:1 90113:1 90114:1 90115:1 90116:1 90117:1 90118:1 90119:1 90120:1 90121:1 90122:1 90123:1 90124:1 90125:1 90126:1 90127:1 90128:1 90129:1 90130:1 90131:1 90132:1 90133:1 90134:1 90135:1 90136:1 90137:1 90138:1 90139:1 90140:1 90141:1 90142:1 90143:1 90144:1 90145:1 90146:1 90147:1 90148:1 90149:1 90150:1 90151:1 90152:1 90153:1 90154:1 90155:1 90156:1 90157:1 90158:1 #
0.00042345395701219606552842544822113 1:1 3:2 6:2 8:1 13:2 19:7 20:1 27:2 42:2 61:3 75:1 94:1 96:1 107:1 118:1 126:2 138:1 140:2 150:1 151:1 152:1 154:2 158:2 226:1 236:1 239:2 257:1 281:1 283:1 305:1 365:1 407:1 450:1 615:2 740:1 898:1 1290:1 1423:2 1503:1 1506:2 1508:1 1537:1 1612:1 1644:1 1912:1 4154:1 5875:2 8288:1 8377:1 21903:1 #
-0.00042345395701219606552842544822113 1:1 16:1 17:1 19:14 25:11 57:1 58:1 94:1 96:1 100:1 132:1 157:1 162:1 208:1 218:1 229:1 241:1 251:1 286:1 295:1 335:2 344:1 512:1 620:1 625:1 713:1 786:1 797:1 848:1 872:1 899:1 1314:2 1499:1 1520:1 1542:1 1550:1 1553:1 1618:1 1628:1 1671:1 1851:1 1968:1 2065:1 2365:1 2371:1 2661:1 2756:1 2980:1 3559:1 3636:1 3792:1 4085:1 4151:1 4423:2 4454:2 5526:1 5843:1 6825:1 7091:1 7565:1 8757:1 9034:1 11827:1 17310:1 17830:1 19481:1 21523:1 22105:1 22733:1 38921:1 47545:1 63345:1 82915:1 82916:1 #
0.00042345395701219606552842544822113 1:1 3:1 6:4 16:4 19:3 20:2 23:2 25:2 27:1 40:2 42:1 58:1 59:1 61:1 72:1 75:3 85:1 120:1 121:1 124:1 138:1 154:3 156:4 158:2 162:1 229:1 253:1 271:1 276:2 279:1 290:1 294:1 310:1 483:1 588:1 610:1 686:2 1124:1 1307:3 1357:1 1423:1 1539:1 1648:1 1795:2 1833:1 1911:1 1922:1 2333:1 2349:1 2523:1 2567:1 2585:1 2599:1 2619:1 2705:1 2823:1 3067:1 3175:1 3796:1 5355:1 5728:1 6439:1 7022:1 7663:1 8861:1 11181:1 22514:1 22515:1 #
-0.00042345395701219606552842544822113 1:1 20:3 33:3 47:1 61:3 72:2 126:1 208:1 314:1 450:12 554:1 713:1 1037:1 1050:2 1328:1 1342:1 1513:2 1795:1 2385:1 2648:6 2772:1 2840:2 2981:3 3219:1 3329:1 3565:1 3768:1 3997:1 5863:1 9638:1 9717:1 11071:1 11089:1 12275:1 20952:1 39315:1 44556:1 57012:3 57312:1 57313:1 57314:1 #
0.00042345395701219606552842544822113 1:1 3:8 4:1 8:2 12:4 13:1 16:1 19:7 20:6 25:1 35:2 42:1 50:4 51:4 61:2 71:1 72:3 75:4 81:1 94:1 96:1 99:2 110:2 111:2 118:1 131:1 151:1 154:1 156:4 218:1 226:1 240:2 280:1 283:1 315:1 352:1 364:1 451:1 528:1 607:1 612:1 613:2 659:1 670:1 864:2 1022:1 1275:144 1276:5 1391:1 1411:23 1480:1 1493:1 1526:1 1537:2 1548:1 1623:1 1643:1 1881:1 1882:1 1883:1 1964:1 1992:1 2574:1 2759:1 2775:2 2877:3 3198:1 3329:2 3373:1 3407:1 3470:1 3521:1 3709:1 3944:1 4130:1 4443:1 4593:1 5212:1 6518:1 6677:1 6949:4 7535:1 7596:1 9185:1 9476:1 14167:1 14299:1 14873:1 25000:1 25881:1 25882:1 25883:1 25884:1 25885:1 #
0.00042345395701219606552842544822113 1:1 6:3 8:1 15:2 16:1 17:1 19:5 23:1 25:2 42:2 72:1 75:2 85:1 87:1 94:1 96:1 99:1 107:1 120:1 124:1 154:2 156:2 208:1 257:4 271:2 285:1 295:1 314:1 318:1 422:1 513:1 879:1 887:1 1290:1 1478:1 1502:1 1506:1 1508:1 1510:1 1511:1 1539:1 1540:1 1638:1 1708:1 1951:1 1966:1 2756:1 2775:1 2834:1 2856:1 3090:2 3358:1 3470:1 3734:1 4565:1 4741:1 5633:1 5729:1 5903:1 14264:1 15386:2 #
0.0003241835818491465778801163821754 1:1 3:6 4:5 6:1 8:4 15:3 16:10 19:33 20:37 23:1 25:30 33:2 40:24 41:2 42:18 43:3 50:1 51:1 55:1 56:5 58:1 59:1 61:5 65:1 68:1 72:25 75:17 81:5 84:1 85:1 87:3 94:2 96:2 100:3 103:1 107:11 110:3 111:1 113:1 118:1 120:10 121:4 126:4 127:1 131:2 132:4 133:3 136:2 138:1 140:3 142:2 148:1 151:1 154:37 156:12 157:1 158:1 162:6 164:1 189:1 193:1 196:5 202:1 213:3 218:7 221:1 224:1 227:1 229:2 230:1 244:1 248:1 257:1 263:2 268:1 269:1 272:4 276:6 282:1 285:24 290:2 295:1 297:2 301:1 314:1 321:3 332:1 340:5 342:1 345:2 349:4 351:1 352:5 374:1 378:2 381:1 390:2 402:1 404:3 407:1 408:1 422:3 426:1 427:2 433:3 441:2 442:3 470:3 480:3 483:1 489:2 510:2 513:1 522:1 530:1 550:1 575:1 576:1 584:1 592:1 599:2 610:2 620:1 634:1 672:1 676:1 680:1 682:9 708:1 716:1 735:1 743:1 760:9 777:2 781:1 797:3 798:3 800:1 832:1 838:1 848:2 864:30 871:23 872:2 873:1 880:1 881:1 886:2 889:3 894:3 895:3 897:1 898:1 911:2 913:1 1050:6 1099:2 1124:3 1144:2 1176:1 1193:2 1206:1 1286:1 1287:1 1297:1 1312:1 1324:2 1353:4 1357:1 1364:1 1368:1 1373:1 1378:1 1384:2 1421:1 1423:2 1450:1 1503:2 1504:3 1516:1 1520:1 1539:1 1541:2 1552:1 1584:1 1613:1 1630:1 1689:3 1730:2 1742:1 1743:1 1758:1 1760:2 1785:4 1789:1 1799:2 1804:1 1831:2 1839:1 1841:1 1912:3 1922:1 1939:1 1953:1 1967:1 1981:2 1988:1 2019:3 2025:3 2026:3 2027:2 2041:2 2047:1 2048:1 2050:3 2054:1 2056:1 2062:1 2116:2 2125:1 2176:2 2177:1 2182:2 2195:1 2202:4 2204:1 2207:1 2209:3 2236:1 2251:1 2252:1 2255:1 2257:1 2275:1 2276:1 2310:1 2346:1 2349:1 2373:1 2404:1 2411:1 2432:1 2440:8 2450:1 2457:3 2461:1 2474:2 2487:1 2530:1 2566:1 2569:2 2589:1 2599:1 2613:1 2621:3 2628:1 2671:1 2719:1 2728:5 2756:2 2760:1 2781:1 2813:1 2888:2 2891:1 2930:2 2955:1 2962:2 2963:1 2972:2 2979:2 2981:1 2984:1 3030:1 3034:1 3151:1 3165:1 3181:1 3191:1 3238:1 3265:1 3284:1 3328:1 3371:1 3518:1 3525:1 3562:1 3571:1 3585:1 3593:1 3685:1 3749:1 3758:1 3761:1 3779:2 3896:1 3906:1 3917:1 3920:1 3984:1 4074:1 4076:1 4092:2 4136:1 4252:1 4265:2 4599:1 4629:2 4796:1 4870:1 5149:1 5204:1 5251:1 5257:1 5277:1 5363:3 5403:1 5463:1 5569:1 5633:1 5663:1 5856:1 5989:1 6073:2 6088:1 6159:2 6172:1 6704:1 6743:1 6811:1 6928:1 6954:1 6989:1 7472:1 7575:1 7799:1 8066:1 8074:1 8235:1 8930:1 9025:2 9181:1 9314:1 9338:1 9365:1 9382:1 9417:1 9432:1 9439:1 9583:1 9595:1 10054:1 10970:1 11073:1 11977:1 12348:1 13175:1 14340:1 14341:1 15504:1 17019:1 17618:1 18250:1 18251:1 18525:1 20454:1 20562:1 23398:1 24203:1 29622:1 33401:1 33402:1 #
0.00042345395701219606552842544822113 1:1 3:1 19:3 20:2 43:1 51:2 53:1 75:1 193:1 530:1 652:1 677:1 843:1 1549:1 1609:1 2207:1 2245:1 4281:1 5540:1 14102:1 #
-0.00042345395701219606552842544822113 1:1 12:3 16:1 47:1 57:1 75:1 81:1 154:1 162:1 285:1 289:1 290:2 957:1 1513:1 1992:1 2212:1 2214:1 3039:1 3336:1 3578:1 3969:1 4587:1 5633:1 5641:1 5780:1 6185:1 6502:1 7227:1 8933:1 13657:1 15836:1 19736:1 19867:1 23713:1 34320:1 40812:1 48841:1 55018:1 55021:1 56412:1 58198:1 66779:1 87816:1 88096:1 95371:1 95534:1 95535:1 #
0.00042345395701219606552842544822113 1:1 3:1 4:1 6:2 10:1 13:4 19:6 20:1 25:7 27:21 40:2 42:5 61:1 65:1 72:2 81:21 94:1 96:1 103:1 107:1 121:1 124:2 131:2 140:1 154:1 156:2 218:2 232:2 285:1 297:1 314:1 378:1 404:2 407:1 422:1 470:1 558:1 567:2 717:1 852:3 894:1 957:1 989:2 1012:1 1208:1 1367:21 1478:2 1488:1 1506:1 1510:1 1511:1 1574:1 1627:1 1938:1 1966:2 1971:1 2083:1 2088:1 2103:1 2308:1 2346:1 2519:1 2585:1 3230:1 3334:1 3381:1 3451:1 3482:1 3593:1 3778:1 4079:1 4081:1 4593:1 4784:1 5777:2 6005:1 6006:1 6067:1 6068:1 6383:2 6387:1 6391:1 6392:1 6727:1 6752:1 6988:1 7331:1 7708:1 10166:1 10285:1 10322:1 10575:2 11195:1 11481:2 11596:1 12045:1 12046:1 17864:1 20948:1 21456:1 21560:1 23285:1 24786:1 24787:1 25008:1 26605:1 26606:1 32659:1 32660:1 38814:1 38815:1 39699:1 46785:1 53763:2 53764:1 53765:21 #
0.00042345395701219606552842544822113 1:1 13:1 16:1 19:3 51:1 59:2 72:1 81:1 107:1 126:1 207:1 272:1 352:1 513:1 1472:2 1506:1 1510:1 1511:1 1749:1 1913:1 2016:1 2043:1 2221:1 2514:2 3070:1 5583:1 6077:1 7509:2 #
-0.00042345395701219606552842544822113 1:1 6:33 8:4 12:1 13:8 14:1 16:1 17:1 19:27 20:3 23:4 25:21 28:1 35:4 40:5 41:6 42:15 47:1 59:3 60:1 61:9 63:2 65:2 67:1 72:7 75:31 87:2 94:1 96:1 103:1 104:1 107:7 111:1 118:1 120:10 124:2 126:2 131:3 132:3 138:2 140:6 148:2 153:3 154:21 156:8 157:1 158:4 162:2 193:1 218:1 226:1 232:2 257:4 263:2 269:1 271:3 272:6 277:1 279:1 280:1 282:2 283:1 288:2 295:5 296:1 306:1 310:1 314:1 315:2 335:1 337:1 338:1 352:4 357:1 378:1 399:1 403:1 404:2 407:5 414:1 416:2 422:2 433:1 441:1 442:2 459:3 463:1 470:2 472:1 483:3 494:1 513:1 520:3 522:2 532:1 538:1 555:3 565:1 570:2 579:2 584:1 610:1 624:1 659:1 665:2 670:1 672:1 680:4 682:1 686:2 691:1 708:1 716:1 717:2 737:1 742:1 744:1 746:1 759:1 760:1 783:1 821:1 832:2 848:1 864:2 879:2 886:3 887:2 888:2 889:1 898:1 992:1 1054:1 1075:1 1099:1 1342:1 1348:1 1373:1 1450:1 1506:6 1511:1 1513:2 1516:1 1533:1 1539:2 1543:1 1549:2 1563:10 1582:1 1612:3 1613:4 1618:1 1620:1 1647:1 1668:1 1701:2 1725:1 1740:2 1823:1 1857:1 1860:2 1871:1 1879:2 1882:1 1883:1 1904:1 1907:1 1912:2 1952:1 2025:1 2054:1 2065:1 2089:1 2119:1 2156:1 2328:1 2448:1 2459:1 2486:1 2517:1 2532:1 2572:1 2576:1 2578:1 2618:3 2673:1 2681:1 2751:2 2758:1 2857:1 2918:1 2974:1 3197:1 3299:1 3442:1 3603:1 3626:1 3642:1 3708:1 3711:1 3768:2 3920:1 3962:2 4112:1 4136:1 4143:1 4172:2 4205:1 4217:1 4477:1 4632:1 4860:1 4932:1 5116:1 5149:3 5340:1 5595:1 5638:1 5639:1 5686:1 5727:1 5772:1 6026:1 6066:1 6181:1 6308:2 6384:1 6434:1 6959:1 7786:1 7813:1 8163:1 8775:1 8789:1 8836:1 9304:1 9344:1 9421:1 9968:1 10834:1 11134:2 11216:1 11220:1 11396:1 12431:1 13332:1 14225:1 14304:1 15672:1 16892:1 17159:1 17682:1 20451:1 23325:1 24517:1 26460:1 28026:1 39419:1 41172:1 42155:1 45403:1 46083:1 55870:1 56251:1 60965:1 79794:1 79795:1 79796:1 79797:1 #
-0.00042345395701219606552842544822113 1:1 3:5 6:1 8:6 15:2 16:7 19:36 20:13 23:2 25:21 40:8 42:49 51:4 58:1 59:6 61:12 65:9 72:34 75:19 87:4 94:4 96:4 111:1 120:3 121:7 126:1 131:1 132:1 134:1 136:4 138:2 151:1 154:26 156:6 158:1 162:8 170:1 188:1 192:1 207:1 213:1 215:1 218:3 236:1 240:1 257:6 258:1 263:1 272:3 285:3 290:1 331:1 349:1 352:5 355:1 358:1 368:1 369:1 398:2 405:1 422:1 442:3 470:1 490:1 503:1 531:1 537:1 541:1 554:1 563:1 570:3 592:1 610:3 612:1 659:1 682:1 708:1 711:3 746:1 771:1 774:1 843:8 864:1 872:1 879:1 888:1 946:1 989:11 1206:1 1260:1 1276:1 1319:1 1328:1 1342:1 1352:1 1353:2 1391:1 1411:24 1416:2 1447:1 1472:1 1516:6 1530:1 1535:2 1552:1 1555:1 1557:1 1578:1 1581:3 1612:1 1613:1 1620:1 1648:1 1671:3 1673:1 1696:2 1698:2 1701:1 1717:1 1718:2 1719:1 1723:2 1735:1 1761:1 1820:2 1833:1 1873:1 1882:2 1911:1 1913:2 2013:1 2039:1 2065:1 2092:1 2095:1 2142:1 2159:1 2192:1 2221:1 2386:1 2399:1 2473:4 2479:1 2523:1 2529:1 2544:1 2548:2 2614:1 2728:1 2738:1 2740:1 2755:1 2800:2 2868:1 2898:1 2907:1 2918:1 2929:1 2939:1 2946:1 2953:1 2957:1 2965:2 3018:1 3146:1 3153:1 3165:1 3166:2 3191:2 3265:1 3268:1 3372:1 3440:1 3462:1 3466:1 3493:1 3500:1 3571:1 3579:2 3593:1 3614:2 3625:1 3637:1 3676:1 3696:1 3750:1 3751:1 3856:2 3884:1 3942:1 3945:1 3946:1 3991:1 4057:1 4070:1 4143:4 4147:1 4151:2 4205:3 4266:1 4270:1 4640:1 4812:2 4841:1 4912:1 4932:1 5275:2 5439:1 5485:1 5633:2 5847:1 5934:3 6026:2 6090:1 6170:6 6321:1 6468:2 6591:1 7025:3 7079:2 7166:1 7218:2 7476:1 8903:1 8971:2 9301:1 9317:1 9319:1 9333:1 9342:1 9370:1 9458:1 9768:1 10068:5 10288:6 10289:1 10351:1 10536:1 10601:1 10768:1 10917:1 11064:1 11071:1 11959:1 12129:1 12317:1 12397:1 12410:2 13727:1 14220:10 14372:1 14886:1 14898:1 15516:1 15560:1 15566:1 16341:2 16631:1 17381:1 17431:1 17759:1 18030:1 18125:1 18149:1 18266:1 18460:1 18740:1 18922:1 21206:1 22851:1 23797:2 23946:1 24065:1 24088:1 24779:2 25107:1 26825:1 28083:1 28343:1 29840:2 30667:1 31863:1 34123:1 45474:2 45730:4 45938:2 48310:1 56223:2 65985:1 78443:1 82091:4 96070:4 96071:1 96072:2 96073:2 96074:3 96075:1 96076:1 96077:1 96078:1 96079:1 96080:3 96081:2 96082:1 96083:1 96084:1 96085:1 96086:1 96087:2 96088:1 96089:1 96090:1 #
0.00042345395701219606552842544822113 1:1 3:3 19:2 31:1 51:2 240:1 760:2 763:1 972:1 1028:1 1364:1 1781:1 1968:1 2613:2 2660:3 2661:1 4199:1 4650:1 4651:1 4652:1 4653:1 #
